<?xml version="1.0"?>
<opencv_storage>
<my_tree type_id="opencv-ml-tree">
  <is_classifier>1</is_classifier>
  <var_all>7500</var_all>
  <var_count>7500</var_count>
  <ord_var_count>7500</ord_var_count>
  <cat_var_count>0</cat_var_count>
  <training_params>
    <use_surrogates>1</use_surrogates>
    <max_categories>2</max_categories>
    <max_depth>25</max_depth>
    <min_sample_count>1</min_sample_count>
    <cross_validation_folds>2</cross_validation_folds>
    <use_1se_rule>1</use_1se_rule>
    <truncate_pruned_tree>1</truncate_pruned_tree>
    <priors type_id="opencv-matrix">
      <rows>1</rows>
      <cols>2</cols>
      <dt>d</dt>
      <data>
        5.0000000000000000e-001 5.0000000000000000e-001</data></priors></training_params>
  <var_type>
    0 0 0 0 0 0 0 0 0 0 0 0 0 0 0 0 0 0 0 0 0 0 0 0 0 0 0 0 0 0 0 0 0 0
    0 0 0 0 0 0 0 0 0 0 0 0 0 0 0 0 0 0 0 0 0 0 0 0 0 0 0 0 0 0 0 0 0 0
    0 0 0 0 0 0 0 0 0 0 0 0 0 0 0 0 0 0 0 0 0 0 0 0 0 0 0 0 0 0 0 0 0 0
    0 0 0 0 0 0 0 0 0 0 0 0 0 0 0 0 0 0 0 0 0 0 0 0 0 0 0 0 0 0 0 0 0 0
    0 0 0 0 0 0 0 0 0 0 0 0 0 0 0 0 0 0 0 0 0 0 0 0 0 0 0 0 0 0 0 0 0 0
    0 0 0 0 0 0 0 0 0 0 0 0 0 0 0 0 0 0 0 0 0 0 0 0 0 0 0 0 0 0 0 0 0 0
    0 0 0 0 0 0 0 0 0 0 0 0 0 0 0 0 0 0 0 0 0 0 0 0 0 0 0 0 0 0 0 0 0 0
    0 0 0 0 0 0 0 0 0 0 0 0 0 0 0 0 0 0 0 0 0 0 0 0 0 0 0 0 0 0 0 0 0 0
    0 0 0 0 0 0 0 0 0 0 0 0 0 0 0 0 0 0 0 0 0 0 0 0 0 0 0 0 0 0 0 0 0 0
    0 0 0 0 0 0 0 0 0 0 0 0 0 0 0 0 0 0 0 0 0 0 0 0 0 0 0 0 0 0 0 0 0 0
    0 0 0 0 0 0 0 0 0 0 0 0 0 0 0 0 0 0 0 0 0 0 0 0 0 0 0 0 0 0 0 0 0 0
    0 0 0 0 0 0 0 0 0 0 0 0 0 0 0 0 0 0 0 0 0 0 0 0 0 0 0 0 0 0 0 0 0 0
    0 0 0 0 0 0 0 0 0 0 0 0 0 0 0 0 0 0 0 0 0 0 0 0 0 0 0 0 0 0 0 0 0 0
    0 0 0 0 0 0 0 0 0 0 0 0 0 0 0 0 0 0 0 0 0 0 0 0 0 0 0 0 0 0 0 0 0 0
    0 0 0 0 0 0 0 0 0 0 0 0 0 0 0 0 0 0 0 0 0 0 0 0 0 0 0 0 0 0 0 0 0 0
    0 0 0 0 0 0 0 0 0 0 0 0 0 0 0 0 0 0 0 0 0 0 0 0 0 0 0 0 0 0 0 0 0 0
    0 0 0 0 0 0 0 0 0 0 0 0 0 0 0 0 0 0 0 0 0 0 0 0 0 0 0 0 0 0 0 0 0 0
    0 0 0 0 0 0 0 0 0 0 0 0 0 0 0 0 0 0 0 0 0 0 0 0 0 0 0 0 0 0 0 0 0 0
    0 0 0 0 0 0 0 0 0 0 0 0 0 0 0 0 0 0 0 0 0 0 0 0 0 0 0 0 0 0 0 0 0 0
    0 0 0 0 0 0 0 0 0 0 0 0 0 0 0 0 0 0 0 0 0 0 0 0 0 0 0 0 0 0 0 0 0 0
    0 0 0 0 0 0 0 0 0 0 0 0 0 0 0 0 0 0 0 0 0 0 0 0 0 0 0 0 0 0 0 0 0 0
    0 0 0 0 0 0 0 0 0 0 0 0 0 0 0 0 0 0 0 0 0 0 0 0 0 0 0 0 0 0 0 0 0 0
    0 0 0 0 0 0 0 0 0 0 0 0 0 0 0 0 0 0 0 0 0 0 0 0 0 0 0 0 0 0 0 0 0 0
    0 0 0 0 0 0 0 0 0 0 0 0 0 0 0 0 0 0 0 0 0 0 0 0 0 0 0 0 0 0 0 0 0 0
    0 0 0 0 0 0 0 0 0 0 0 0 0 0 0 0 0 0 0 0 0 0 0 0 0 0 0 0 0 0 0 0 0 0
    0 0 0 0 0 0 0 0 0 0 0 0 0 0 0 0 0 0 0 0 0 0 0 0 0 0 0 0 0 0 0 0 0 0
    0 0 0 0 0 0 0 0 0 0 0 0 0 0 0 0 0 0 0 0 0 0 0 0 0 0 0 0 0 0 0 0 0 0
    0 0 0 0 0 0 0 0 0 0 0 0 0 0 0 0 0 0 0 0 0 0 0 0 0 0 0 0 0 0 0 0 0 0
    0 0 0 0 0 0 0 0 0 0 0 0 0 0 0 0 0 0 0 0 0 0 0 0 0 0 0 0 0 0 0 0 0 0
    0 0 0 0 0 0 0 0 0 0 0 0 0 0 0 0 0 0 0 0 0 0 0 0 0 0 0 0 0 0 0 0 0 0
    0 0 0 0 0 0 0 0 0 0 0 0 0 0 0 0 0 0 0 0 0 0 0 0 0 0 0 0 0 0 0 0 0 0
    0 0 0 0 0 0 0 0 0 0 0 0 0 0 0 0 0 0 0 0 0 0 0 0 0 0 0 0 0 0 0 0 0 0
    0 0 0 0 0 0 0 0 0 0 0 0 0 0 0 0 0 0 0 0 0 0 0 0 0 0 0 0 0 0 0 0 0 0
    0 0 0 0 0 0 0 0 0 0 0 0 0 0 0 0 0 0 0 0 0 0 0 0 0 0 0 0 0 0 0 0 0 0
    0 0 0 0 0 0 0 0 0 0 0 0 0 0 0 0 0 0 0 0 0 0 0 0 0 0 0 0 0 0 0 0 0 0
    0 0 0 0 0 0 0 0 0 0 0 0 0 0 0 0 0 0 0 0 0 0 0 0 0 0 0 0 0 0 0 0 0 0
    0 0 0 0 0 0 0 0 0 0 0 0 0 0 0 0 0 0 0 0 0 0 0 0 0 0 0 0 0 0 0 0 0 0
    0 0 0 0 0 0 0 0 0 0 0 0 0 0 0 0 0 0 0 0 0 0 0 0 0 0 0 0 0 0 0 0 0 0
    0 0 0 0 0 0 0 0 0 0 0 0 0 0 0 0 0 0 0 0 0 0 0 0 0 0 0 0 0 0 0 0 0 0
    0 0 0 0 0 0 0 0 0 0 0 0 0 0 0 0 0 0 0 0 0 0 0 0 0 0 0 0 0 0 0 0 0 0
    0 0 0 0 0 0 0 0 0 0 0 0 0 0 0 0 0 0 0 0 0 0 0 0 0 0 0 0 0 0 0 0 0 0
    0 0 0 0 0 0 0 0 0 0 0 0 0 0 0 0 0 0 0 0 0 0 0 0 0 0 0 0 0 0 0 0 0 0
    0 0 0 0 0 0 0 0 0 0 0 0 0 0 0 0 0 0 0 0 0 0 0 0 0 0 0 0 0 0 0 0 0 0
    0 0 0 0 0 0 0 0 0 0 0 0 0 0 0 0 0 0 0 0 0 0 0 0 0 0 0 0 0 0 0 0 0 0
    0 0 0 0 0 0 0 0 0 0 0 0 0 0 0 0 0 0 0 0 0 0 0 0 0 0 0 0 0 0 0 0 0 0
    0 0 0 0 0 0 0 0 0 0 0 0 0 0 0 0 0 0 0 0 0 0 0 0 0 0 0 0 0 0 0 0 0 0
    0 0 0 0 0 0 0 0 0 0 0 0 0 0 0 0 0 0 0 0 0 0 0 0 0 0 0 0 0 0 0 0 0 0
    0 0 0 0 0 0 0 0 0 0 0 0 0 0 0 0 0 0 0 0 0 0 0 0 0 0 0 0 0 0 0 0 0 0
    0 0 0 0 0 0 0 0 0 0 0 0 0 0 0 0 0 0 0 0 0 0 0 0 0 0 0 0 0 0 0 0 0 0
    0 0 0 0 0 0 0 0 0 0 0 0 0 0 0 0 0 0 0 0 0 0 0 0 0 0 0 0 0 0 0 0 0 0
    0 0 0 0 0 0 0 0 0 0 0 0 0 0 0 0 0 0 0 0 0 0 0 0 0 0 0 0 0 0 0 0 0 0
    0 0 0 0 0 0 0 0 0 0 0 0 0 0 0 0 0 0 0 0 0 0 0 0 0 0 0 0 0 0 0 0 0 0
    0 0 0 0 0 0 0 0 0 0 0 0 0 0 0 0 0 0 0 0 0 0 0 0 0 0 0 0 0 0 0 0 0 0
    0 0 0 0 0 0 0 0 0 0 0 0 0 0 0 0 0 0 0 0 0 0 0 0 0 0 0 0 0 0 0 0 0 0
    0 0 0 0 0 0 0 0 0 0 0 0 0 0 0 0 0 0 0 0 0 0 0 0 0 0 0 0 0 0 0 0 0 0
    0 0 0 0 0 0 0 0 0 0 0 0 0 0 0 0 0 0 0 0 0 0 0 0 0 0 0 0 0 0 0 0 0 0
    0 0 0 0 0 0 0 0 0 0 0 0 0 0 0 0 0 0 0 0 0 0 0 0 0 0 0 0 0 0 0 0 0 0
    0 0 0 0 0 0 0 0 0 0 0 0 0 0 0 0 0 0 0 0 0 0 0 0 0 0 0 0 0 0 0 0 0 0
    0 0 0 0 0 0 0 0 0 0 0 0 0 0 0 0 0 0 0 0 0 0 0 0 0 0 0 0 0 0 0 0 0 0
    0 0 0 0 0 0 0 0 0 0 0 0 0 0 0 0 0 0 0 0 0 0 0 0 0 0 0 0 0 0 0 0 0 0
    0 0 0 0 0 0 0 0 0 0 0 0 0 0 0 0 0 0 0 0 0 0 0 0 0 0 0 0 0 0 0 0 0 0
    0 0 0 0 0 0 0 0 0 0 0 0 0 0 0 0 0 0 0 0 0 0 0 0 0 0 0 0 0 0 0 0 0 0
    0 0 0 0 0 0 0 0 0 0 0 0 0 0 0 0 0 0 0 0 0 0 0 0 0 0 0 0 0 0 0 0 0 0
    0 0 0 0 0 0 0 0 0 0 0 0 0 0 0 0 0 0 0 0 0 0 0 0 0 0 0 0 0 0 0 0 0 0
    0 0 0 0 0 0 0 0 0 0 0 0 0 0 0 0 0 0 0 0 0 0 0 0 0 0 0 0 0 0 0 0 0 0
    0 0 0 0 0 0 0 0 0 0 0 0 0 0 0 0 0 0 0 0 0 0 0 0 0 0 0 0 0 0 0 0 0 0
    0 0 0 0 0 0 0 0 0 0 0 0 0 0 0 0 0 0 0 0 0 0 0 0 0 0 0 0 0 0 0 0 0 0
    0 0 0 0 0 0 0 0 0 0 0 0 0 0 0 0 0 0 0 0 0 0 0 0 0 0 0 0 0 0 0 0 0 0
    0 0 0 0 0 0 0 0 0 0 0 0 0 0 0 0 0 0 0 0 0 0 0 0 0 0 0 0 0 0 0 0 0 0
    0 0 0 0 0 0 0 0 0 0 0 0 0 0 0 0 0 0 0 0 0 0 0 0 0 0 0 0 0 0 0 0 0 0
    0 0 0 0 0 0 0 0 0 0 0 0 0 0 0 0 0 0 0 0 0 0 0 0 0 0 0 0 0 0 0 0 0 0
    0 0 0 0 0 0 0 0 0 0 0 0 0 0 0 0 0 0 0 0 0 0 0 0 0 0 0 0 0 0 0 0 0 0
    0 0 0 0 0 0 0 0 0 0 0 0 0 0 0 0 0 0 0 0 0 0 0 0 0 0 0 0 0 0 0 0 0 0
    0 0 0 0 0 0 0 0 0 0 0 0 0 0 0 0 0 0 0 0 0 0 0 0 0 0 0 0 0 0 0 0 0 0
    0 0 0 0 0 0 0 0 0 0 0 0 0 0 0 0 0 0 0 0 0 0 0 0 0 0 0 0 0 0 0 0 0 0
    0 0 0 0 0 0 0 0 0 0 0 0 0 0 0 0 0 0 0 0 0 0 0 0 0 0 0 0 0 0 0 0 0 0
    0 0 0 0 0 0 0 0 0 0 0 0 0 0 0 0 0 0 0 0 0 0 0 0 0 0 0 0 0 0 0 0 0 0
    0 0 0 0 0 0 0 0 0 0 0 0 0 0 0 0 0 0 0 0 0 0 0 0 0 0 0 0 0 0 0 0 0 0
    0 0 0 0 0 0 0 0 0 0 0 0 0 0 0 0 0 0 0 0 0 0 0 0 0 0 0 0 0 0 0 0 0 0
    0 0 0 0 0 0 0 0 0 0 0 0 0 0 0 0 0 0 0 0 0 0 0 0 0 0 0 0 0 0 0 0 0 0
    0 0 0 0 0 0 0 0 0 0 0 0 0 0 0 0 0 0 0 0 0 0 0 0 0 0 0 0 0 0 0 0 0 0
    0 0 0 0 0 0 0 0 0 0 0 0 0 0 0 0 0 0 0 0 0 0 0 0 0 0 0 0 0 0 0 0 0 0
    0 0 0 0 0 0 0 0 0 0 0 0 0 0 0 0 0 0 0 0 0 0 0 0 0 0 0 0 0 0 0 0 0 0
    0 0 0 0 0 0 0 0 0 0 0 0 0 0 0 0 0 0 0 0 0 0 0 0 0 0 0 0 0 0 0 0 0 0
    0 0 0 0 0 0 0 0 0 0 0 0 0 0 0 0 0 0 0 0 0 0 0 0 0 0 0 0 0 0 0 0 0 0
    0 0 0 0 0 0 0 0 0 0 0 0 0 0 0 0 0 0 0 0 0 0 0 0 0 0 0 0 0 0 0 0 0 0
    0 0 0 0 0 0 0 0 0 0 0 0 0 0 0 0 0 0 0 0 0 0 0 0 0 0 0 0 0 0 0 0 0 0
    0 0 0 0 0 0 0 0 0 0 0 0 0 0 0 0 0 0 0 0 0 0 0 0 0 0 0 0 0 0 0 0 0 0
    0 0 0 0 0 0 0 0 0 0 0 0 0 0 0 0 0 0 0 0 0 0 0 0 0 0 0 0 0 0 0 0 0 0
    0 0 0 0 0 0 0 0 0 0 0 0 0 0 0 0 0 0 0 0 0 0 0 0 0 0 0 0 0 0 0 0 0 0
    0 0 0 0 0 0 0 0 0 0 0 0 0 0 0 0 0 0 0 0 0 0 0 0 0 0 0 0 0 0 0 0 0 0
    0 0 0 0 0 0 0 0 0 0 0 0 0 0 0 0 0 0 0 0 0 0 0 0 0 0 0 0 0 0 0 0 0 0
    0 0 0 0 0 0 0 0 0 0 0 0 0 0 0 0 0 0 0 0 0 0 0 0 0 0 0 0 0 0 0 0 0 0
    0 0 0 0 0 0 0 0 0 0 0 0 0 0 0 0 0 0 0 0 0 0 0 0 0 0 0 0 0 0 0 0 0 0
    0 0 0 0 0 0 0 0 0 0 0 0 0 0 0 0 0 0 0 0 0 0 0 0 0 0 0 0 0 0 0 0 0 0
    0 0 0 0 0 0 0 0 0 0 0 0 0 0 0 0 0 0 0 0 0 0 0 0 0 0 0 0 0 0 0 0 0 0
    0 0 0 0 0 0 0 0 0 0 0 0 0 0 0 0 0 0 0 0 0 0 0 0 0 0 0 0 0 0 0 0 0 0
    0 0 0 0 0 0 0 0 0 0 0 0 0 0 0 0 0 0 0 0 0 0 0 0 0 0 0 0 0 0 0 0 0 0
    0 0 0 0 0 0 0 0 0 0 0 0 0 0 0 0 0 0 0 0 0 0 0 0 0 0 0 0 0 0 0 0 0 0
    0 0 0 0 0 0 0 0 0 0 0 0 0 0 0 0 0 0 0 0 0 0 0 0 0 0 0 0 0 0 0 0 0 0
    0 0 0 0 0 0 0 0 0 0 0 0 0 0 0 0 0 0 0 0 0 0 0 0 0 0 0 0 0 0 0 0 0 0
    0 0 0 0 0 0 0 0 0 0 0 0 0 0 0 0 0 0 0 0 0 0 0 0 0 0 0 0 0 0 0 0 0 0
    0 0 0 0 0 0 0 0 0 0 0 0 0 0 0 0 0 0 0 0 0 0 0 0 0 0 0 0 0 0 0 0 0 0
    0 0 0 0 0 0 0 0 0 0 0 0 0 0 0 0 0 0 0 0 0 0 0 0 0 0 0 0 0 0 0 0 0 0
    0 0 0 0 0 0 0 0 0 0 0 0 0 0 0 0 0 0 0 0 0 0 0 0 0 0 0 0 0 0 0 0 0 0
    0 0 0 0 0 0 0 0 0 0 0 0 0 0 0 0 0 0 0 0 0 0 0 0 0 0 0 0 0 0 0 0 0 0
    0 0 0 0 0 0 0 0 0 0 0 0 0 0 0 0 0 0 0 0 0 0 0 0 0 0 0 0 0 0 0 0 0 0
    0 0 0 0 0 0 0 0 0 0 0 0 0 0 0 0 0 0 0 0 0 0 0 0 0 0 0 0 0 0 0 0 0 0
    0 0 0 0 0 0 0 0 0 0 0 0 0 0 0 0 0 0 0 0 0 0 0 0 0 0 0 0 0 0 0 0 0 0
    0 0 0 0 0 0 0 0 0 0 0 0 0 0 0 0 0 0 0 0 0 0 0 0 0 0 0 0 0 0 0 0 0 0
    0 0 0 0 0 0 0 0 0 0 0 0 0 0 0 0 0 0 0 0 0 0 0 0 0 0 0 0 0 0 0 0 0 0
    0 0 0 0 0 0 0 0 0 0 0 0 0 0 0 0 0 0 0 0 0 0 0 0 0 0 0 0 0 0 0 0 0 0
    0 0 0 0 0 0 0 0 0 0 0 0 0 0 0 0 0 0 0 0 0 0 0 0 0 0 0 0 0 0 0 0 0 0
    0 0 0 0 0 0 0 0 0 0 0 0 0 0 0 0 0 0 0 0 0 0 0 0 0 0 0 0 0 0 0 0 0 0
    0 0 0 0 0 0 0 0 0 0 0 0 0 0 0 0 0 0 0 0 0 0 0 0 0 0 0 0 0 0 0 0 0 0
    0 0 0 0 0 0 0 0 0 0 0 0 0 0 0 0 0 0 0 0 0 0 0 0 0 0 0 0 0 0 0 0 0 0
    0 0 0 0 0 0 0 0 0 0 0 0 0 0 0 0 0 0 0 0 0 0 0 0 0 0 0 0 0 0 0 0 0 0
    0 0 0 0 0 0 0 0 0 0 0 0 0 0 0 0 0 0 0 0 0 0 0 0 0 0 0 0 0 0 0 0 0 0
    0 0 0 0 0 0 0 0 0 0 0 0 0 0 0 0 0 0 0 0 0 0 0 0 0 0 0 0 0 0 0 0 0 0
    0 0 0 0 0 0 0 0 0 0 0 0 0 0 0 0 0 0 0 0 0 0 0 0 0 0 0 0 0 0 0 0 0 0
    0 0 0 0 0 0 0 0 0 0 0 0 0 0 0 0 0 0 0 0 0 0 0 0 0 0 0 0 0 0 0 0 0 0
    0 0 0 0 0 0 0 0 0 0 0 0 0 0 0 0 0 0 0 0 0 0 0 0 0 0 0 0 0 0 0 0 0 0
    0 0 0 0 0 0 0 0 0 0 0 0 0 0 0 0 0 0 0 0 0 0 0 0 0 0 0 0 0 0 0 0 0 0
    0 0 0 0 0 0 0 0 0 0 0 0 0 0 0 0 0 0 0 0 0 0 0 0 0 0 0 0 0 0 0 0 0 0
    0 0 0 0 0 0 0 0 0 0 0 0 0 0 0 0 0 0 0 0 0 0 0 0 0 0 0 0 0 0 0 0 0 0
    0 0 0 0 0 0 0 0 0 0 0 0 0 0 0 0 0 0 0 0 0 0 0 0 0 0 0 0 0 0 0 0 0 0
    0 0 0 0 0 0 0 0 0 0 0 0 0 0 0 0 0 0 0 0 0 0 0 0 0 0 0 0 0 0 0 0 0 0
    0 0 0 0 0 0 0 0 0 0 0 0 0 0 0 0 0 0 0 0 0 0 0 0 0 0 0 0 0 0 0 0 0 0
    0 0 0 0 0 0 0 0 0 0 0 0 0 0 0 0 0 0 0 0 0 0 0 0 0 0 0 0 0 0 0 0 0 0
    0 0 0 0 0 0 0 0 0 0 0 0 0 0 0 0 0 0 0 0 0 0 0 0 0 0 0 0 0 0 0 0 0 0
    0 0 0 0 0 0 0 0 0 0 0 0 0 0 0 0 0 0 0 0 0 0 0 0 0 0 0 0 0 0 0 0 0 0
    0 0 0 0 0 0 0 0 0 0 0 0 0 0 0 0 0 0 0 0 0 0 0 0 0 0 0 0 0 0 0 0 0 0
    0 0 0 0 0 0 0 0 0 0 0 0 0 0 0 0 0 0 0 0 0 0 0 0 0 0 0 0 0 0 0 0 0 0
    0 0 0 0 0 0 0 0 0 0 0 0 0 0 0 0 0 0 0 0 0 0 0 0 0 0 0 0 0 0 0 0 0 0
    0 0 0 0 0 0 0 0 0 0 0 0 0 0 0 0 0 0 0 0 0 0 0 0 0 0 0 0 0 0 0 0 0 0
    0 0 0 0 0 0 0 0 0 0 0 0 0 0 0 0 0 0 0 0 0 0 0 0 0 0 0 0 0 0 0 0 0 0
    0 0 0 0 0 0 0 0 0 0 0 0 0 0 0 0 0 0 0 0 0 0 0 0 0 0 0 0 0 0 0 0 0 0
    0 0 0 0 0 0 0 0 0 0 0 0 0 0 0 0 0 0 0 0 0 0 0 0 0 0 0 0 0 0 0 0 0 0
    0 0 0 0 0 0 0 0 0 0 0 0 0 0 0 0 0 0 0 0 0 0 0 0 0 0 0 0 0 0 0 0 0 0
    0 0 0 0 0 0 0 0 0 0 0 0 0 0 0 0 0 0 0 0 0 0 0 0 0 0 0 0 0 0 0 0 0 0
    0 0 0 0 0 0 0 0 0 0 0 0 0 0 0 0 0 0 0 0 0 0 0 0 0 0 0 0 0 0 0 0 0 0
    0 0 0 0 0 0 0 0 0 0 0 0 0 0 0 0 0 0 0 0 0 0 0 0 0 0 0 0 0 0 0 0 0 0
    0 0 0 0 0 0 0 0 0 0 0 0 0 0 0 0 0 0 0 0 0 0 0 0 0 0 0 0 0 0 0 0 0 0
    0 0 0 0 0 0 0 0 0 0 0 0 0 0 0 0 0 0 0 0 0 0 0 0 0 0 0 0 0 0 0 0 0 0
    0 0 0 0 0 0 0 0 0 0 0 0 0 0 0 0 0 0 0 0 0 0 0 0 0 0 0 0 0 0 0 0 0 0
    0 0 0 0 0 0 0 0 0 0 0 0 0 0 0 0 0 0 0 0 0 0 0 0 0 0 0 0 0 0 0 0 0 0
    0 0 0 0 0 0 0 0 0 0 0 0 0 0 0 0 0 0 0 0 0 0 0 0 0 0 0 0 0 0 0 0 0 0
    0 0 0 0 0 0 0 0 0 0 0 0 0 0 0 0 0 0 0 0 0 0 0 0 0 0 0 0 0 0 0 0 0 0
    0 0 0 0 0 0 0 0 0 0 0 0 0 0 0 0 0 0 0 0 0 0 0 0 0 0 0 0 0 0 0 0 0 0
    0 0 0 0 0 0 0 0 0 0 0 0 0 0 0 0 0 0 0 0 0 0 0 0 0 0 0 0 0 0 0 0 0 0
    0 0 0 0 0 0 0 0 0 0 0 0 0 0 0 0 0 0 0 0 0 0 0 0 0 0 0 0 0 0 0 0 0 0
    0 0 0 0 0 0 0 0 0 0 0 0 0 0 0 0 0 0 0 0 0 0 0 0 0 0 0 0 0 0 0 0 0 0
    0 0 0 0 0 0 0 0 0 0 0 0 0 0 0 0 0 0 0 0 0 0 0 0 0 0 0 0 0 0 0 0 0 0
    0 0 0 0 0 0 0 0 0 0 0 0 0 0 0 0 0 0 0 0 0 0 0 0 0 0 0 0 0 0 0 0 0 0
    0 0 0 0 0 0 0 0 0 0 0 0 0 0 0 0 0 0 0 0 0 0 0 0 0 0 0 0 0 0 0 0 0 0
    0 0 0 0 0 0 0 0 0 0 0 0 0 0 0 0 0 0 0 0 0 0 0 0 0 0 0 0 0 0 0 0 0 0
    0 0 0 0 0 0 0 0 0 0 0 0 0 0 0 0 0 0 0 0 0 0 0 0 0 0 0 0 0 0 0 0 0 0
    0 0 0 0 0 0 0 0 0 0 0 0 0 0 0 0 0 0 0 0 0 0 0 0 0 0 0 0 0 0 0 0 0 0
    0 0 0 0 0 0 0 0 0 0 0 0 0 0 0 0 0 0 0 0 0 0 0 0 0 0 0 0 0 0 0 0 0 0
    0 0 0 0 0 0 0 0 0 0 0 0 0 0 0 0 0 0 0 0 0 0 0 0 0 0 0 0 0 0 0 0 0 0
    0 0 0 0 0 0 0 0 0 0 0 0 0 0 0 0 0 0 0 0 0 0 0 0 0 0 0 0 0 0 0 0 0 0
    0 0 0 0 0 0 0 0 0 0 0 0 0 0 0 0 0 0 0 0 0 0 0 0 0 0 0 0 0 0 0 0 0 0
    0 0 0 0 0 0 0 0 0 0 0 0 0 0 0 0 0 0 0 0 0 0 0 0 0 0 0 0 0 0 0 0 0 0
    0 0 0 0 0 0 0 0 0 0 0 0 0 0 0 0 0 0 0 0 0 0 0 0 0 0 0 0 0 0 0 0 0 0
    0 0 0 0 0 0 0 0 0 0 0 0 0 0 0 0 0 0 0 0 0 0 0 0 0 0 0 0 0 0 0 0 0 0
    0 0 0 0 0 0 0 0 0 0 0 0 0 0 0 0 0 0 0 0 0 0 0 0 0 0 0 0 0 0 0 0 0 0
    0 0 0 0 0 0 0 0 0 0 0 0 0 0 0 0 0 0 0 0 0 0 0 0 0 0 0 0 0 0 0 0 0 0
    0 0 0 0 0 0 0 0 0 0 0 0 0 0 0 0 0 0 0 0 0 0 0 0 0 0 0 0 0 0 0 0 0 0
    0 0 0 0 0 0 0 0 0 0 0 0 0 0 0 0 0 0 0 0 0 0 0 0 0 0 0 0 0 0 0 0 0 0
    0 0 0 0 0 0 0 0 0 0 0 0 0 0 0 0 0 0 0 0 0 0 0 0 0 0 0 0 0 0 0 0 0 0
    0 0 0 0 0 0 0 0 0 0 0 0 0 0 0 0 0 0 0 0 0 0 0 0 0 0 0 0 0 0 0 0 0 0
    0 0 0 0 0 0 0 0 0 0 0 0 0 0 0 0 0 0 0 0 0 0 0 0 0 0 0 0 0 0 0 0 0 0
    0 0 0 0 0 0 0 0 0 0 0 0 0 0 0 0 0 0 0 0 0 0 0 0 0 0 0 0 0 0 0 0 0 0
    0 0 0 0 0 0 0 0 0 0 0 0 0 0 0 0 0 0 0 0 0 0 0 0 0 0 0 0 0 0 0 0 0 0
    0 0 0 0 0 0 0 0 0 0 0 0 0 0 0 0 0 0 0 0 0 0 0 0 0 0 0 0 0 0 0 0 0 0
    0 0 0 0 0 0 0 0 0 0 0 0 0 0 0 0 0 0 0 0 0 0 0 0 0 0 0 0 0 0 0 0 0 0
    0 0 0 0 0 0 0 0 0 0 0 0 0 0 0 0 0 0 0 0 0 0 0 0 0 0 0 0 0 0 0 0 0 0
    0 0 0 0 0 0 0 0 0 0 0 0 0 0 0 0 0 0 0 0 0 0 0 0 0 0 0 0 0 0 0 0 0 0
    0 0 0 0 0 0 0 0 0 0 0 0 0 0 0 0 0 0 0 0 0 0 0 0 0 0 0 0 0 0 0 0 0 0
    0 0 0 0 0 0 0 0 0 0 0 0 0 0 0 0 0 0 0 0 0 0 0 0 0 0 0 0 0 0 0 0 0 0
    0 0 0 0 0 0 0 0 0 0 0 0 0 0 0 0 0 0 0 0 0 0 0 0 0 0 0 0 0 0 0 0 0 0
    0 0 0 0 0 0 0 0 0 0 0 0 0 0 0 0 0 0 0 0 0 0 0 0 0 0 0 0 0 0 0 0 0 0
    0 0 0 0 0 0 0 0 0 0 0 0 0 0 0 0 0 0 0 0 0 0 0 0 0 0 0 0 0 0 0 0 0 0
    0 0 0 0 0 0 0 0 0 0 0 0 0 0 0 0 0 0 0 0 0 0 0 0 0 0 0 0 0 0 0 0 0 0
    0 0 0 0 0 0 0 0 0 0 0 0 0 0 0 0 0 0 0 0 0 0 0 0 0 0 0 0 0 0 0 0 0 0
    0 0 0 0 0 0 0 0 0 0 0 0 0 0 0 0 0 0 0 0 0 0 0 0 0 0 0 0 0 0 0 0 0 0
    0 0 0 0 0 0 0 0 0 0 0 0 0 0 0 0 0 0 0 0 0 0 0 0 0 0 0 0 0 0 0 0 0 0
    0 0 0 0 0 0 0 0 0 0 0 0 0 0 0 0 0 0 0 0 0 0 0 0 0 0 0 0 0 0 0 0 0 0
    0 0 0 0 0 0 0 0 0 0 0 0 0 0 0 0 0 0 0 0 0 0 0 0 0 0 0 0 0 0 0 0 0 0
    0 0 0 0 0 0 0 0 0 0 0 0 0 0 0 0 0 0 0 0 0 0 0 0 0 0 0 0 0 0 0 0 0 0
    0 0 0 0 0 0 0 0 0 0 0 0 0 0 0 0 0 0 0 0 0 0 0 0 0 0 0 0 0 0 0 0 0 0
    0 0 0 0 0 0 0 0 0 0 0 0 0 0 0 0 0 0 0 0 0 0 0 0 0 0 0 0 0 0 0 0 0 0
    0 0 0 0 0 0 0 0 0 0 0 0 0 0 0 0 0 0 0 0 0 0 0 0 0 0 0 0 0 0 0 0 0 0
    0 0 0 0 0 0 0 0 0 0 0 0 0 0 0 0 0 0 0 0 0 0 0 0 0 0 0 0 0 0 0 0 0 0
    0 0 0 0 0 0 0 0 0 0 0 0 0 0 0 0 0 0 0 0 0 0 0 0 0 0 0 0 0 0 0 0 0 0
    0 0 0 0 0 0 0 0 0 0 0 0 0 0 0 0 0 0 0 0 0 0 0 0 0 0 0 0 0 0 0 0 0 0
    0 0 0 0 0 0 0 0 0 0 0 0 0 0 0 0 0 0 0 0 0 0 0 0 0 0 0 0 0 0 0 0 0 0
    0 0 0 0 0 0 0 0 0 0 0 0 0 0 0 0 0 0 0 0 0 0 0 0 0 0 0 0 0 0 0 0 0 0
    0 0 0 0 0 0 0 0 0 0 0 0 0 0 0 0 0 0 0 0 0 0 0 0 0 0 0 0 0 0 0 0 0 0
    0 0 0 0 0 0 0 0 0 0 0 0 0 0 0 0 0 0 0 0 0 0 0 0 0 0 0 0 0 0 0 0 0 0
    0 0 0 0 0 0 0 0 0 0 0 0 0 0 0 0 0 0 0 0 0 0 0 0 0 0 0 0 0 0 0 0 0 0
    0 0 0 0 0 0 0 0 0 0 0 0 0 0 0 0 0 0 0 0 0 0 0 0 0 0 0 0 0 0 0 0 0 0
    0 0 0 0 0 0 0 0 0 0 0 0 0 0 0 0 0 0 0 0 0 0 0 0 0 0 0 0 0 0 0 0 0 0
    0 0 0 0 0 0 0 0 0 0 0 0 0 0 0 0 0 0 0 0 0 0 0 0 0 0 0 0 0 0 0 0 0 0
    0 0 0 0 0 0 0 0 0 0 0 0 0 0 0 0 0 0 0 0 0 0 0 0 0 0 0 0 0 0 0 0 0 0
    0 0 0 0 0 0 0 0 0 0 0 0 0 0 0 0 0 0 0 0 0 0 0 0 0 0 0 0 0 0 0 0 0 0
    0 0 0 0 0 0 0 0 0 0 0 0 0 0 0 0 0 0 0 0 0 0 0 0 0 0 0 0 0 0 0 0 0 0
    0 0 0 0 0 0 0 0 0 0 0 0 0 0 0 0 0 0 0 0 0 0 0 0 0 0 0 0 0 0 0 0 0 0
    0 0 0 0 0 0 0 0 0 0 0 0 0 0 0 0 0 0 0 0 0 0 0 0 0 0 0 0 0 0 0 0 0 0
    0 0 0 0 0 0 0 0 0 0 0 0 0 0 0 0 0 0 0 0 0 0 0 0 0 0 0 0 0 0 0 0 0 0
    0 0 0 0 0 0 0 0 0 0 0 0 0 0 0 0 0 0 0 0 0 0 0 0 0 0 0 0 0 0 0 0 0 0
    0 0 0 0 0 0 0 0 0 0 0 0 0 0 0 0 0 0 0 0 0 0 0 0 0 0 0 0 0 0 0 0 0 0
    0 0 0 0 0 0 0 0 0 0 0 0 0 0 0 0 0 0 0 0 0 0 0 0 0 0 0 0 0 0 0 0 0 0
    0 0 0 0 0 0 0 0 0 0 0 0 0 0 0 0 0 0 0 0 0 0 0 0 0 0 0 0 0 0 0 0 0 0
    0 0 0 0 0 0 0 0 0 0 0 0 0 0 0 0 0 0 0 0 0 0 0 0 0 0 0 0 0 0 0 0 0 0
    0 0 0 0 0 0 0 0 0 0 0 0 0 0 0 0 0 0 0 0 0 0 0 0 0 0 0 0 0 0 0 0 0 0
    0 0 0 0 0 0 0 0 0 0 0 0 0 0 0 0 0 0 0 0 0 0 0 0 0 0 0 0 0 0 0 0 0 0
    0 0 0 0 0 0 0 0 0 0 0 0 0 0 0 0 0 0 0 0 0 0 0 0 0 0 0 0 0 0 0 0 0 0
    0 0 0 0 0 0 0 0 0 0 0 0 0 0 0 0 0 0 0 0 0 0 0 0 0 0 0 0 0 0 0 0 0 0
    0 0 0 0 0 0 0 0 0 0 0 0 0 0 0 0 0 0 0 0 0 0 0 0 0 0 0 0 0 0 0 0 0 0
    0 0 0 0 0 0 0 0 0 0 0 0 0 0 0 0 0 0 0 0</var_type>
  <cat_count type_id="opencv-matrix">
    <rows>1</rows>
    <cols>1</cols>
    <dt>i</dt>
    <data>
      2</data></cat_count>
  <cat_map type_id="opencv-matrix">
    <rows>1</rows>
    <cols>2</cols>
    <dt>i</dt>
    <data>
      0 1</data></cat_map>
  <best_tree_idx>0</best_tree_idx>
  <nodes>
    <_>
      <depth>0</depth>
      <sample_count>30</sample_count>
      <value>0.</value>
      <norm_class_idx>0</norm_class_idx>
      <Tn>2</Tn>
      <complexity>2</complexity>
      <alpha>2.5000000000000000e+000</alpha>
      <node_risk>7.5000000000000000e+000</node_risk>
      <tree_risk>1.</tree_risk>
      <tree_error>1.5000000000000000e+000</tree_error>
      <splits>
        <_><var>6757</var>
          <quality>1.1250000000000000e+001</quality>
          <le>9.3786948919296265e-001</le></_>
        <_><var>6337</var>
          <quality>1.0500000000000000e+001</quality>
          <le>6.8904131650924683e-001</le></_>
        <_><var>4223</var>
          <quality>1.0500000000000000e+001</quality>
          <le>9.3913280963897705e-001</le></_>
        <_><var>4108</var>
          <quality>1.0500000000000000e+001</quality>
          <le>9.4674104452133179e-001</le></_>
        <_><var>7085</var>
          <quality>1.0125000000000000e+001</quality>
          <gt>8.4272253513336182e-001</gt></_>
        <_><var>7014</var>
          <quality>1.0125000000000000e+001</quality>
          <gt>8.4114468097686768e-001</gt></_>
        <_><var>6880</var>
          <quality>1.0125000000000000e+001</quality>
          <le>9.4377708435058594e-001</le></_>
        <_><var>6860</var>
          <quality>1.0125000000000000e+001</quality>
          <le>9.1780328750610352e-001</le></_>
        <_><var>6855</var>
          <quality>1.0125000000000000e+001</quality>
          <le>8.8938242197036743e-001</le></_>
        <_><var>5990</var>
          <quality>1.0125000000000000e+001</quality>
          <le>9.0134781599044800e-001</le></_>
        <_><var>5906</var>
          <quality>1.0125000000000000e+001</quality>
          <le>9.1124546527862549e-001</le></_>
        <_><var>5891</var>
          <quality>1.0125000000000000e+001</quality>
          <le>8.9666140079498291e-001</le></_>
        <_><var>4244</var>
          <quality>1.0125000000000000e+001</quality>
          <le>9.2675405740737915e-001</le></_>
        <_><var>2431</var>
          <quality>1.0125000000000000e+001</quality>
          <le>8.7679332494735718e-001</le></_>
        <_><var>2291</var>
          <quality>1.0125000000000000e+001</quality>
          <le>9.2196989059448242e-001</le></_>
        <_><var>2121</var>
          <quality>1.0125000000000000e+001</quality>
          <le>9.2271208763122559e-001</le></_>
        <_><var>2019</var>
          <quality>1.0125000000000000e+001</quality>
          <le>9.1331094503402710e-001</le></_>
        <_><var>1401</var>
          <quality>1.0125000000000000e+001</quality>
          <le>9.4476580619812012e-001</le></_>
        <_><var>7436</var>
          <quality>9.7500000000000000e+000</quality>
          <gt>8.1900525093078613e-001</gt></_>
        <_><var>7045</var>
          <quality>9.7500000000000000e+000</quality>
          <gt>8.3604907989501953e-001</gt></_>
        <_><var>7007</var>
          <quality>9.7500000000000000e+000</quality>
          <gt>8.6415666341781616e-001</gt></_>
        <_><var>7006</var>
          <quality>9.7500000000000000e+000</quality>
          <gt>8.6805558204650879e-001</gt></_>
        <_><var>6952</var>
          <quality>9.7500000000000000e+000</quality>
          <le>9.1179645061492920e-001</le></_>
        <_><var>6847</var>
          <quality>9.7500000000000000e+000</quality>
          <le>9.0145736932754517e-001</le></_>
        <_><var>6778</var>
          <quality>9.7500000000000000e+000</quality>
          <le>9.0199750661849976e-001</le></_>
        <_><var>6382</var>
          <quality>9.7500000000000000e+000</quality>
          <le>7.1304333209991455e-001</le></_>
        <_><var>6366</var>
          <quality>9.7500000000000000e+000</quality>
          <le>7.6355308294296265e-001</le></_>
        <_><var>6260</var>
          <quality>9.7500000000000000e+000</quality>
          <le>7.1810919046401978e-001</le></_>
        <_><var>6190</var>
          <quality>9.7500000000000000e+000</quality>
          <le>8.2045280933380127e-001</le></_>
        <_><var>5972</var>
          <quality>9.7500000000000000e+000</quality>
          <le>9.0519535541534424e-001</le></_>
        <_><var>5802</var>
          <quality>9.7500000000000000e+000</quality>
          <le>9.3703842163085938e-001</le></_>
        <_><var>5649</var>
          <quality>9.7500000000000000e+000</quality>
          <le>8.7291705608367920e-001</le></_>
        <_><var>5637</var>
          <quality>9.7500000000000000e+000</quality>
          <le>8.9699482917785645e-001</le></_>
        <_><var>5622</var>
          <quality>9.7500000000000000e+000</quality>
          <le>8.6893397569656372e-001</le></_>
        <_><var>5435</var>
          <quality>9.7500000000000000e+000</quality>
          <le>9.2040777206420898e-001</le></_>
        <_><var>5404</var>
          <quality>9.7500000000000000e+000</quality>
          <le>9.3344837427139282e-001</le></_>
        <_><var>5304</var>
          <quality>9.7500000000000000e+000</quality>
          <le>9.3919754028320313e-001</le></_>
        <_><var>5190</var>
          <quality>9.7500000000000000e+000</quality>
          <le>8.0984854698181152e-001</le></_>
        <_><var>4946</var>
          <quality>9.7500000000000000e+000</quality>
          <le>9.3541842699050903e-001</le></_>
        <_><var>4893</var>
          <quality>9.7500000000000000e+000</quality>
          <le>8.5362386703491211e-001</le></_>
        <_><var>4792</var>
          <quality>9.7500000000000000e+000</quality>
          <le>9.3067049980163574e-001</le></_>
        <_><var>4644</var>
          <quality>9.7500000000000000e+000</quality>
          <le>9.0749645233154297e-001</le></_>
        <_><var>4013</var>
          <quality>9.7500000000000000e+000</quality>
          <le>9.0677356719970703e-001</le></_>
        <_><var>3492</var>
          <quality>9.7500000000000000e+000</quality>
          <le>9.5401144027709961e-001</le></_>
        <_><var>2858</var>
          <quality>9.7500000000000000e+000</quality>
          <le>9.4243800640106201e-001</le></_>
        <_><var>2744</var>
          <quality>9.7500000000000000e+000</quality>
          <le>9.4908285140991211e-001</le></_>
        <_><var>2700</var>
          <quality>9.7500000000000000e+000</quality>
          <le>9.5039576292037964e-001</le></_>
        <_><var>2445</var>
          <quality>9.7500000000000000e+000</quality>
          <le>9.3364810943603516e-001</le></_>
        <_><var>2077</var>
          <quality>9.7500000000000000e+000</quality>
          <le>9.0015566349029541e-001</le></_>
        <_><var>1996</var>
          <quality>9.7500000000000000e+000</quality>
          <le>9.3090629577636719e-001</le></_>
        <_><var>1719</var>
          <quality>9.7500000000000000e+000</quality>
          <gt>8.6240470409393311e-001</gt></_>
        <_><var>1458</var>
          <quality>9.7500000000000000e+000</quality>
          <le>9.3576538562774658e-001</le></_>
        <_><var>1454</var>
          <quality>9.7500000000000000e+000</quality>
          <le>7.7332252264022827e-001</le></_>
        <_><var>1368</var>
          <quality>9.7500000000000000e+000</quality>
          <le>9.3849027156829834e-001</le></_>
        <_><var>1303</var>
          <quality>9.7500000000000000e+000</quality>
          <le>9.4600057601928711e-001</le></_>
        <_><var>1181</var>
          <quality>9.7500000000000000e+000</quality>
          <le>9.0319442749023438e-001</le></_>
        <_><var>1137</var>
          <quality>9.7500000000000000e+000</quality>
          <le>9.0126001834869385e-001</le></_>
        <_><var>1116</var>
          <quality>9.7500000000000000e+000</quality>
          <le>9.4705319404602051e-001</le></_>
        <_><var>521</var>
          <quality>9.7500000000000000e+000</quality>
          <le>9.2114341259002686e-001</le></_>
        <_><var>447</var>
          <quality>9.7500000000000000e+000</quality>
          <le>9.1824662685394287e-001</le></_>
        <_><var>334</var>
          <quality>9.7500000000000000e+000</quality>
          <le>7.8923690319061279e-001</le></_>
        <_><var>261</var>
          <quality>9.7500000000000000e+000</quality>
          <le>9.0878415107727051e-001</le></_>
        <_><var>7497</var>
          <quality>9.3750000000000000e+000</quality>
          <le>8.6558878421783447e-001</le></_>
        <_><var>7490</var>
          <quality>9.3750000000000000e+000</quality>
          <gt>8.1135016679763794e-001</gt></_>
        <_><var>7324</var>
          <quality>9.3750000000000000e+000</quality>
          <gt>8.1673491001129150e-001</gt></_>
        <_><var>7268</var>
          <quality>9.3750000000000000e+000</quality>
          <gt>8.0865585803985596e-001</gt></_>
        <_><var>7257</var>
          <quality>9.3750000000000000e+000</quality>
          <gt>8.1031137704849243e-001</gt></_>
        <_><var>7214</var>
          <quality>9.3750000000000000e+000</quality>
          <gt>8.0452597141265869e-001</gt></_>
        <_><var>7199</var>
          <quality>9.3750000000000000e+000</quality>
          <gt>7.9547506570816040e-001</gt></_>
        <_><var>7159</var>
          <quality>9.3750000000000000e+000</quality>
          <gt>8.0351889133453369e-001</gt></_>
        <_><var>7080</var>
          <quality>9.3750000000000000e+000</quality>
          <gt>8.3464151620864868e-001</gt></_>
        <_><var>7071</var>
          <quality>9.3750000000000000e+000</quality>
          <gt>8.4730052947998047e-001</gt></_>
        <_><var>7070</var>
          <quality>9.3750000000000000e+000</quality>
          <gt>8.4585016965866089e-001</gt></_>
        <_><var>7009</var>
          <quality>9.3750000000000000e+000</quality>
          <gt>8.6566722393035889e-001</gt></_>
        <_><var>7008</var>
          <quality>9.3750000000000000e+000</quality>
          <gt>8.6552751064300537e-001</gt></_>
        <_><var>7005</var>
          <quality>9.3750000000000000e+000</quality>
          <gt>8.5793423652648926e-001</gt></_>
        <_><var>7004</var>
          <quality>9.3750000000000000e+000</quality>
          <gt>8.6721837520599365e-001</gt></_>
        <_><var>7003</var>
          <quality>9.3750000000000000e+000</quality>
          <gt>8.6825549602508545e-001</gt></_>
        <_><var>7002</var>
          <quality>9.3750000000000000e+000</quality>
          <gt>8.6732327938079834e-001</gt></_>
        <_><var>7001</var>
          <quality>9.3750000000000000e+000</quality>
          <gt>8.6691743135452271e-001</gt></_>
        <_><var>7000</var>
          <quality>9.3750000000000000e+000</quality>
          <gt>8.6044919490814209e-001</gt></_>
        <_><var>6994</var>
          <quality>9.3750000000000000e+000</quality>
          <le>9.2061448097229004e-001</le></_>
        <_><var>6974</var>
          <quality>9.3750000000000000e+000</quality>
          <le>9.5695245265960693e-001</le></_>
        <_><var>6885</var>
          <quality>9.3750000000000000e+000</quality>
          <le>7.9709744453430176e-001</le></_>
        <_><var>6882</var>
          <quality>9.3750000000000000e+000</quality>
          <le>8.6758387088775635e-001</le></_>
        <_><var>6877</var>
          <quality>9.3750000000000000e+000</quality>
          <le>9.4584870338439941e-001</le></_>
        <_><var>6846</var>
          <quality>9.3750000000000000e+000</quality>
          <le>9.6399497985839844e-001</le></_>
        <_><var>6822</var>
          <quality>9.3750000000000000e+000</quality>
          <le>9.5990663766860962e-001</le></_>
        <_><var>6802</var>
          <quality>9.3750000000000000e+000</quality>
          <le>9.1032087802886963e-001</le></_>
        <_><var>6751</var>
          <quality>9.3750000000000000e+000</quality>
          <le>9.3205797672271729e-001</le></_>
        <_><var>6713</var>
          <quality>9.3750000000000000e+000</quality>
          <le>8.2587754726409912e-001</le></_>
        <_><var>6608</var>
          <quality>9.3750000000000000e+000</quality>
          <le>8.8225281238555908e-001</le></_>
        <_><var>6313</var>
          <quality>9.3750000000000000e+000</quality>
          <le>9.3187797069549561e-001</le></_>
        <_><var>6303</var>
          <quality>9.3750000000000000e+000</quality>
          <le>9.1291224956512451e-001</le></_>
        <_><var>6298</var>
          <quality>9.3750000000000000e+000</quality>
          <le>7.2463440895080566e-001</le></_>
        <_><var>6072</var>
          <quality>9.3750000000000000e+000</quality>
          <le>5.9878647327423096e-001</le></_>
        <_><var>6068</var>
          <quality>9.3750000000000000e+000</quality>
          <le>8.5923159122467041e-001</le></_>
        <_><var>6060</var>
          <quality>9.3750000000000000e+000</quality>
          <le>7.6266443729400635e-001</le></_>
        <_><var>6028</var>
          <quality>9.3750000000000000e+000</quality>
          <le>8.0328506231307983e-001</le></_>
        <_><var>5953</var>
          <quality>9.3750000000000000e+000</quality>
          <le>8.4515583515167236e-001</le></_>
        <_><var>5924</var>
          <quality>9.3750000000000000e+000</quality>
          <le>9.4324851036071777e-001</le></_>
        <_><var>5885</var>
          <quality>9.3750000000000000e+000</quality>
          <le>9.0263414382934570e-001</le></_>
        <_><var>5867</var>
          <quality>9.3750000000000000e+000</quality>
          <le>9.4096958637237549e-001</le></_>
        <_><var>5810</var>
          <quality>9.3750000000000000e+000</quality>
          <le>9.3003612756729126e-001</le></_>
        <_><var>5762</var>
          <quality>9.3750000000000000e+000</quality>
          <le>8.5249352455139160e-001</le></_>
        <_><var>5753</var>
          <quality>9.3750000000000000e+000</quality>
          <le>8.7345373630523682e-001</le></_>
        <_><var>5731</var>
          <quality>9.3750000000000000e+000</quality>
          <le>8.4506493806838989e-001</le></_>
        <_><var>5690</var>
          <quality>9.3750000000000000e+000</quality>
          <le>8.6409676074981689e-001</le></_>
        <_><var>5629</var>
          <quality>9.3750000000000000e+000</quality>
          <le>7.6618003845214844e-001</le></_>
        <_><var>5578</var>
          <quality>9.3750000000000000e+000</quality>
          <le>9.3482363224029541e-001</le></_>
        <_><var>5514</var>
          <quality>9.3750000000000000e+000</quality>
          <le>9.6735954284667969e-001</le></_>
        <_><var>5468</var>
          <quality>9.3750000000000000e+000</quality>
          <le>9.4513303041458130e-001</le></_>
        <_><var>5426</var>
          <quality>9.3750000000000000e+000</quality>
          <le>9.6063673496246338e-001</le></_>
        <_><var>5414</var>
          <quality>9.3750000000000000e+000</quality>
          <le>9.5500016212463379e-001</le></_>
        <_><var>5407</var>
          <quality>9.3750000000000000e+000</quality>
          <le>9.5387583971023560e-001</le></_>
        <_><var>5392</var>
          <quality>9.3750000000000000e+000</quality>
          <le>7.6869493722915649e-001</le></_>
        <_><var>5345</var>
          <quality>9.3750000000000000e+000</quality>
          <le>9.5925265550613403e-001</le></_>
        <_><var>5330</var>
          <quality>9.3750000000000000e+000</quality>
          <le>9.4769066572189331e-001</le></_>
        <_><var>5323</var>
          <quality>9.3750000000000000e+000</quality>
          <le>8.7591886520385742e-001</le></_>
        <_><var>5283</var>
          <quality>9.3750000000000000e+000</quality>
          <le>9.1571241617202759e-001</le></_>
        <_><var>5232</var>
          <quality>9.3750000000000000e+000</quality>
          <le>8.4918099641799927e-001</le></_>
        <_><var>5109</var>
          <quality>9.3750000000000000e+000</quality>
          <le>9.0345060825347900e-001</le></_>
        <_><var>4932</var>
          <quality>9.3750000000000000e+000</quality>
          <le>9.2276889085769653e-001</le></_>
        <_><var>4835</var>
          <quality>9.3750000000000000e+000</quality>
          <le>9.4066631793975830e-001</le></_>
        <_><var>4809</var>
          <quality>9.3750000000000000e+000</quality>
          <le>9.2650806903839111e-001</le></_>
        <_><var>4778</var>
          <quality>9.3750000000000000e+000</quality>
          <le>9.4609892368316650e-001</le></_>
        <_><var>4761</var>
          <quality>9.3750000000000000e+000</quality>
          <le>9.4238424301147461e-001</le></_>
        <_><var>4751</var>
          <quality>9.3750000000000000e+000</quality>
          <le>8.9542853832244873e-001</le></_>
        <_><var>4638</var>
          <quality>9.3750000000000000e+000</quality>
          <le>9.1630905866622925e-001</le></_>
        <_><var>4610</var>
          <quality>9.3750000000000000e+000</quality>
          <le>8.7701356410980225e-001</le></_>
        <_><var>4506</var>
          <quality>9.3750000000000000e+000</quality>
          <gt>8.9549052715301514e-001</gt></_>
        <_><var>4501</var>
          <quality>9.3750000000000000e+000</quality>
          <gt>9.0999448299407959e-001</gt></_>
        <_><var>4465</var>
          <quality>9.3750000000000000e+000</quality>
          <le>9.1178780794143677e-001</le></_>
        <_><var>4463</var>
          <quality>9.3750000000000000e+000</quality>
          <le>9.4846516847610474e-001</le></_>
        <_><var>4329</var>
          <quality>9.3750000000000000e+000</quality>
          <le>7.6786929368972778e-001</le></_>
        <_><var>4277</var>
          <quality>9.3750000000000000e+000</quality>
          <le>9.5261764526367188e-001</le></_>
        <_><var>4083</var>
          <quality>9.3750000000000000e+000</quality>
          <le>9.5837014913558960e-001</le></_>
        <_><var>3496</var>
          <quality>9.3750000000000000e+000</quality>
          <le>9.5226478576660156e-001</le></_>
        <_><var>3474</var>
          <quality>9.3750000000000000e+000</quality>
          <le>9.4702541828155518e-001</le></_>
        <_><var>3236</var>
          <quality>9.3750000000000000e+000</quality>
          <le>9.3902188539505005e-001</le></_>
        <_><var>3224</var>
          <quality>9.3750000000000000e+000</quality>
          <le>9.5304346084594727e-001</le></_>
        <_><var>3219</var>
          <quality>9.3750000000000000e+000</quality>
          <le>7.5776070356369019e-001</le></_>
        <_><var>2996</var>
          <quality>9.3750000000000000e+000</quality>
          <le>9.5239734649658203e-001</le></_>
        <_><var>2982</var>
          <quality>9.3750000000000000e+000</quality>
          <le>9.4625753164291382e-001</le></_>
        <_><var>2949</var>
          <quality>9.3750000000000000e+000</quality>
          <le>9.3584859371185303e-001</le></_>
        <_><var>2900</var>
          <quality>9.3750000000000000e+000</quality>
          <le>9.0570044517517090e-001</le></_>
        <_><var>2898</var>
          <quality>9.3750000000000000e+000</quality>
          <le>9.3260610103607178e-001</le></_>
        <_><var>2865</var>
          <quality>9.3750000000000000e+000</quality>
          <le>9.5199197530746460e-001</le></_>
        <_><var>2826</var>
          <quality>9.3750000000000000e+000</quality>
          <le>9.5175105333328247e-001</le></_>
        <_><var>2763</var>
          <quality>9.3750000000000000e+000</quality>
          <le>9.3161964416503906e-001</le></_>
        <_><var>2729</var>
          <quality>9.3750000000000000e+000</quality>
          <le>9.4641953706741333e-001</le></_>
        <_><var>2667</var>
          <quality>9.3750000000000000e+000</quality>
          <le>8.9245903491973877e-001</le></_>
        <_><var>2664</var>
          <quality>9.3750000000000000e+000</quality>
          <le>9.4797945022583008e-001</le></_>
        <_><var>2296</var>
          <quality>9.3750000000000000e+000</quality>
          <le>9.2933362722396851e-001</le></_>
        <_><var>2286</var>
          <quality>9.3750000000000000e+000</quality>
          <le>8.7821805477142334e-001</le></_>
        <_><var>2268</var>
          <quality>9.3750000000000000e+000</quality>
          <le>9.2082536220550537e-001</le></_>
        <_><var>2150</var>
          <quality>9.3750000000000000e+000</quality>
          <le>9.0181040763854980e-001</le></_>
        <_><var>2144</var>
          <quality>9.3750000000000000e+000</quality>
          <le>9.4708001613616943e-001</le></_>
        <_><var>2122</var>
          <quality>9.3750000000000000e+000</quality>
          <le>9.2883771657943726e-001</le></_>
        <_><var>1993</var>
          <quality>9.3750000000000000e+000</quality>
          <le>9.3571513891220093e-001</le></_>
        <_><var>1795</var>
          <quality>9.3750000000000000e+000</quality>
          <le>8.5472220182418823e-001</le></_>
        <_><var>1737</var>
          <quality>9.3750000000000000e+000</quality>
          <le>9.3139588832855225e-001</le></_>
        <_><var>1661</var>
          <quality>9.3750000000000000e+000</quality>
          <le>9.6098852157592773e-001</le></_>
        <_><var>1636</var>
          <quality>9.3750000000000000e+000</quality>
          <le>9.3239867687225342e-001</le></_>
        <_><var>1489</var>
          <quality>9.3750000000000000e+000</quality>
          <le>7.9551702737808228e-001</le></_>
        <_><var>1476</var>
          <quality>9.3750000000000000e+000</quality>
          <le>9.3015205860137939e-001</le></_>
        <_><var>1460</var>
          <quality>9.3750000000000000e+000</quality>
          <le>9.2667239904403687e-001</le></_>
        <_><var>1459</var>
          <quality>9.3750000000000000e+000</quality>
          <le>9.1441714763641357e-001</le></_>
        <_><var>1430</var>
          <quality>9.3750000000000000e+000</quality>
          <le>8.7850809097290039e-001</le></_>
        <_><var>1314</var>
          <quality>9.3750000000000000e+000</quality>
          <le>8.9981734752655029e-001</le></_>
        <_><var>1309</var>
          <quality>9.3750000000000000e+000</quality>
          <le>9.5042026042938232e-001</le></_>
        <_><var>1305</var>
          <quality>9.3750000000000000e+000</quality>
          <le>9.0708827972412109e-001</le></_>
        <_><var>1270</var>
          <quality>9.3750000000000000e+000</quality>
          <le>9.1858375072479248e-001</le></_>
        <_><var>1050</var>
          <quality>9.3750000000000000e+000</quality>
          <le>8.6543178558349609e-001</le></_>
        <_><var>1007</var>
          <quality>9.3750000000000000e+000</quality>
          <le>8.9160388708114624e-001</le></_>
        <_><var>633</var>
          <quality>9.3750000000000000e+000</quality>
          <le>9.1738820075988770e-001</le></_>
        <_><var>550</var>
          <quality>9.3750000000000000e+000</quality>
          <le>8.0154621601104736e-001</le></_>
        <_><var>463</var>
          <quality>9.3750000000000000e+000</quality>
          <le>8.5643732547760010e-001</le></_>
        <_><var>422</var>
          <quality>9.3750000000000000e+000</quality>
          <le>9.0765202045440674e-001</le></_>
        <_><var>347</var>
          <quality>9.3750000000000000e+000</quality>
          <le>9.1785538196563721e-001</le></_>
        <_><var>191</var>
          <quality>9.3750000000000000e+000</quality>
          <le>9.0733170509338379e-001</le></_>
        <_><var>7460</var>
          <quality>9.</quality>
          <gt>8.0474746227264404e-001</gt></_>
        <_><var>7350</var>
          <quality>9.</quality>
          <gt>8.0908083915710449e-001</gt></_>
        <_><var>7328</var>
          <quality>9.</quality>
          <gt>8.6143934726715088e-001</gt></_>
        <_><var>7323</var>
          <quality>9.</quality>
          <gt>8.2402741909027100e-001</gt></_>
        <_><var>7315</var>
          <quality>9.</quality>
          <gt>8.4908342361450195e-001</gt></_>
        <_><var>7279</var>
          <quality>9.</quality>
          <gt>7.9714798927307129e-001</gt></_>
        <_><var>7211</var>
          <quality>9.</quality>
          <gt>7.9163479804992676e-001</gt></_>
        <_><var>7200</var>
          <quality>9.</quality>
          <gt>8.6593413352966309e-001</gt></_>
        <_><var>7170</var>
          <quality>9.</quality>
          <gt>8.0322784185409546e-001</gt></_>
        <_><var>7131</var>
          <quality>9.</quality>
          <gt>8.2129496335983276e-001</gt></_>
        <_><var>7083</var>
          <quality>9.</quality>
          <gt>8.4389036893844604e-001</gt></_>
        <_><var>7069</var>
          <quality>9.</quality>
          <gt>8.4151077270507813e-001</gt></_>
        <_><var>7042</var>
          <quality>9.</quality>
          <gt>8.4982496500015259e-001</gt></_>
        <_><var>7034</var>
          <quality>9.</quality>
          <gt>8.3418631553649902e-001</gt></_>
        <_><var>7024</var>
          <quality>9.</quality>
          <gt>8.3673548698425293e-001</gt></_>
        <_><var>7023</var>
          <quality>9.</quality>
          <gt>8.3486831188201904e-001</gt></_>
        <_><var>7017</var>
          <quality>9.</quality>
          <gt>8.5490739345550537e-001</gt></_>
        <_><var>6999</var>
          <quality>9.</quality>
          <le>8.5567951202392578e-001</le></_>
        <_><var>6991</var>
          <quality>9.</quality>
          <le>8.4610563516616821e-001</le></_>
        <_><var>6981</var>
          <quality>9.</quality>
          <le>9.6159142255783081e-001</le></_>
        <_><var>6964</var>
          <quality>9.</quality>
          <le>9.6212655305862427e-001</le></_>
        <_><var>6954</var>
          <quality>9.</quality>
          <le>9.3593388795852661e-001</le></_>
        <_><var>6949</var>
          <quality>9.</quality>
          <le>9.5691263675689697e-001</le></_>
        <_><var>6926</var>
          <quality>9.</quality>
          <le>8.6469703912734985e-001</le></_>
        <_><var>6924</var>
          <quality>9.</quality>
          <le>8.5057538747787476e-001</le></_>
        <_><var>6901</var>
          <quality>9.</quality>
          <le>9.4164705276489258e-001</le></_>
        <_><var>6899</var>
          <quality>9.</quality>
          <le>9.5775902271270752e-001</le></_>
        <_><var>6884</var>
          <quality>9.</quality>
          <le>9.3924176692962646e-001</le></_>
        <_><var>6873</var>
          <quality>9.</quality>
          <le>9.3115162849426270e-001</le></_>
        <_><var>6872</var>
          <quality>9.</quality>
          <le>9.5906376838684082e-001</le></_>
        <_><var>6859</var>
          <quality>9.</quality>
          <le>8.7324202060699463e-001</le></_>
        <_><var>6826</var>
          <quality>9.</quality>
          <le>8.5181438922882080e-001</le></_>
        <_><var>6813</var>
          <quality>9.</quality>
          <le>9.6328610181808472e-001</le></_>
        <_><var>6811</var>
          <quality>9.</quality>
          <le>9.5109033584594727e-001</le></_>
        <_><var>6808</var>
          <quality>9.</quality>
          <le>8.9189749956130981e-001</le></_>
        <_><var>6800</var>
          <quality>9.</quality>
          <le>9.5827388763427734e-001</le></_>
        <_><var>6787</var>
          <quality>9.</quality>
          <le>9.4767081737518311e-001</le></_>
        <_><var>6780</var>
          <quality>9.</quality>
          <le>8.5258817672729492e-001</le></_>
        <_><var>6742</var>
          <quality>9.</quality>
          <le>8.8884079456329346e-001</le></_>
        <_><var>6737</var>
          <quality>9.</quality>
          <le>8.2264536619186401e-001</le></_>
        <_><var>6736</var>
          <quality>9.</quality>
          <le>9.6125137805938721e-001</le></_>
        <_><var>6735</var>
          <quality>9.</quality>
          <le>8.5322803258895874e-001</le></_>
        <_><var>6725</var>
          <quality>9.</quality>
          <le>9.3170952796936035e-001</le></_>
        <_><var>6720</var>
          <quality>9.</quality>
          <le>9.4158387184143066e-001</le></_>
        <_><var>6674</var>
          <quality>9.</quality>
          <le>9.0432494878768921e-001</le></_>
        <_><var>6672</var>
          <quality>9.</quality>
          <le>8.1204867362976074e-001</le></_>
        <_><var>6646</var>
          <quality>9.</quality>
          <le>8.7180674076080322e-001</le></_>
        <_><var>6631</var>
          <quality>9.</quality>
          <le>9.0668439865112305e-001</le></_>
        <_><var>6623</var>
          <quality>9.</quality>
          <le>8.1802749633789063e-001</le></_>
        <_><var>6621</var>
          <quality>9.</quality>
          <le>8.4483921527862549e-001</le></_>
        <_><var>6576</var>
          <quality>9.</quality>
          <le>9.2182219028472900e-001</le></_>
        <_><var>6558</var>
          <quality>9.</quality>
          <le>9.2301476001739502e-001</le></_>
        <_><var>6475</var>
          <quality>9.</quality>
          <le>8.1551420688629150e-001</le></_>
        <_><var>6466</var>
          <quality>9.</quality>
          <le>6.1391830444335938e-001</le></_>
        <_><var>6448</var>
          <quality>9.</quality>
          <le>9.2129158973693848e-001</le></_>
        <_><var>6433</var>
          <quality>9.</quality>
          <le>7.4216604232788086e-001</le></_>
        <_><var>6431</var>
          <quality>9.</quality>
          <le>7.3019647598266602e-001</le></_>
        <_><var>6401</var>
          <quality>9.</quality>
          <le>6.6911941766738892e-001</le></_>
        <_><var>6391</var>
          <quality>9.</quality>
          <le>8.4914809465408325e-001</le></_>
        <_><var>6371</var>
          <quality>9.</quality>
          <le>7.6018416881561279e-001</le></_>
        <_><var>6363</var>
          <quality>9.</quality>
          <le>9.3955528736114502e-001</le></_>
        <_><var>6357</var>
          <quality>9.</quality>
          <le>8.6732715368270874e-001</le></_>
        <_><var>6355</var>
          <quality>9.</quality>
          <le>9.4108176231384277e-001</le></_>
        <_><var>6323</var>
          <quality>9.</quality>
          <le>9.4495165348052979e-001</le></_>
        <_><var>6314</var>
          <quality>9.</quality>
          <le>9.5909368991851807e-001</le></_>
        <_><var>6304</var>
          <quality>9.</quality>
          <le>8.4713470935821533e-001</le></_>
        <_><var>6300</var>
          <quality>9.</quality>
          <le>9.4045233726501465e-001</le></_>
        <_><var>6292</var>
          <quality>9.</quality>
          <le>9.1060340404510498e-001</le></_>
        <_><var>6279</var>
          <quality>9.</quality>
          <le>9.4536733627319336e-001</le></_>
        <_><var>6273</var>
          <quality>9.</quality>
          <le>8.5132586956024170e-001</le></_>
        <_><var>6234</var>
          <quality>9.</quality>
          <le>9.5768946409225464e-001</le></_>
        <_><var>6232</var>
          <quality>9.</quality>
          <le>9.4535332918167114e-001</le></_>
        <_><var>6213</var>
          <quality>9.</quality>
          <le>6.2114024162292480e-001</le></_>
        <_><var>6194</var>
          <quality>9.</quality>
          <le>8.0083596706390381e-001</le></_>
        <_><var>6184</var>
          <quality>9.</quality>
          <le>6.9331812858581543e-001</le></_>
        <_><var>6183</var>
          <quality>9.</quality>
          <le>6.7157268524169922e-001</le></_>
        <_><var>6180</var>
          <quality>9.</quality>
          <le>9.5502197742462158e-001</le></_>
        <_><var>6149</var>
          <quality>9.</quality>
          <le>9.4890832901000977e-001</le></_>
        <_><var>6147</var>
          <quality>9.</quality>
          <le>8.5445082187652588e-001</le></_>
        <_><var>6143</var>
          <quality>9.</quality>
          <le>9.0685278177261353e-001</le></_>
        <_><var>6136</var>
          <quality>9.</quality>
          <le>9.6482628583908081e-001</le></_>
        <_><var>6106</var>
          <quality>9.</quality>
          <le>8.1707251071929932e-001</le></_>
        <_><var>6091</var>
          <quality>9.</quality>
          <le>8.1893128156661987e-001</le></_>
        <_><var>6079</var>
          <quality>9.</quality>
          <le>5.5671751499176025e-001</le></_>
        <_><var>6058</var>
          <quality>9.</quality>
          <le>8.6756813526153564e-001</le></_>
        <_><var>6055</var>
          <quality>9.</quality>
          <le>8.5881358385086060e-001</le></_>
        <_><var>6052</var>
          <quality>9.</quality>
          <le>8.6800193786621094e-001</le></_>
        <_><var>6037</var>
          <quality>9.</quality>
          <le>8.4171247482299805e-001</le></_>
        <_><var>6032</var>
          <quality>9.</quality>
          <le>8.6835277080535889e-001</le></_>
        <_><var>6016</var>
          <quality>9.</quality>
          <le>7.1605032682418823e-001</le></_>
        <_><var>5985</var>
          <quality>9.</quality>
          <le>9.2436420917510986e-001</le></_>
        <_><var>5970</var>
          <quality>9.</quality>
          <le>8.5109484195709229e-001</le></_>
        <_><var>5929</var>
          <quality>9.</quality>
          <le>9.4849848747253418e-001</le></_>
        <_><var>5914</var>
          <quality>9.</quality>
          <le>9.5278227329254150e-001</le></_>
        <_><var>5814</var>
          <quality>9.</quality>
          <le>9.1650360822677612e-001</le></_>
        <_><var>5796</var>
          <quality>9.</quality>
          <le>8.2306528091430664e-001</le></_>
        <_><var>5769</var>
          <quality>9.</quality>
          <le>9.0625697374343872e-001</le></_>
        <_><var>5739</var>
          <quality>9.</quality>
          <le>8.6243116855621338e-001</le></_>
        <_><var>5722</var>
          <quality>9.</quality>
          <le>9.0226042270660400e-001</le></_>
        <_><var>5711</var>
          <quality>9.</quality>
          <le>9.1742873191833496e-001</le></_>
        <_><var>5709</var>
          <quality>9.</quality>
          <le>9.1790449619293213e-001</le></_>
        <_><var>5702</var>
          <quality>9.</quality>
          <le>8.6533391475677490e-001</le></_>
        <_><var>5682</var>
          <quality>9.</quality>
          <le>9.0648818016052246e-001</le></_>
        <_><var>5666</var>
          <quality>9.</quality>
          <le>8.0620193481445313e-001</le></_>
        <_><var>5657</var>
          <quality>9.</quality>
          <le>9.1958594322204590e-001</le></_>
        <_><var>5552</var>
          <quality>9.</quality>
          <le>9.2340564727783203e-001</le></_>
        <_><var>5519</var>
          <quality>9.</quality>
          <le>9.5118945837020874e-001</le></_>
        <_><var>5493</var>
          <quality>9.</quality>
          <le>9.1284281015396118e-001</le></_>
        <_><var>5485</var>
          <quality>9.</quality>
          <le>9.5638626813888550e-001</le></_>
        <_><var>5481</var>
          <quality>9.</quality>
          <le>9.3339967727661133e-001</le></_>
        <_><var>5471</var>
          <quality>9.</quality>
          <le>9.2168909311294556e-001</le></_>
        <_><var>5466</var>
          <quality>9.</quality>
          <le>9.0981394052505493e-001</le></_>
        <_><var>5458</var>
          <quality>9.</quality>
          <le>9.0480566024780273e-001</le></_>
        <_><var>5448</var>
          <quality>9.</quality>
          <le>9.0080416202545166e-001</le></_>
        <_><var>5446</var>
          <quality>9.</quality>
          <le>9.0045535564422607e-001</le></_>
        <_><var>5432</var>
          <quality>9.</quality>
          <le>9.4131821393966675e-001</le></_>
        <_><var>5425</var>
          <quality>9.</quality>
          <le>9.0619528293609619e-001</le></_>
        <_><var>5423</var>
          <quality>9.</quality>
          <le>8.9075571298599243e-001</le></_>
        <_><var>5400</var>
          <quality>9.</quality>
          <le>9.2100811004638672e-001</le></_>
        <_><var>5386</var>
          <quality>9.</quality>
          <le>9.4902300834655762e-001</le></_>
        <_><var>5378</var>
          <quality>9.</quality>
          <le>9.5202547311782837e-001</le></_>
        <_><var>5375</var>
          <quality>9.</quality>
          <le>9.1925817728042603e-001</le></_>
        <_><var>5369</var>
          <quality>9.</quality>
          <le>9.5823156833648682e-001</le></_>
        <_><var>5354</var>
          <quality>9.</quality>
          <le>8.9122569561004639e-001</le></_>
        <_><var>5348</var>
          <quality>9.</quality>
          <le>9.5728218555450439e-001</le></_>
        <_><var>5332</var>
          <quality>9.</quality>
          <le>9.5218974351882935e-001</le></_>
        <_><var>5308</var>
          <quality>9.</quality>
          <le>9.4143497943878174e-001</le></_>
        <_><var>5307</var>
          <quality>9.</quality>
          <le>9.5385867357254028e-001</le></_>
        <_><var>5305</var>
          <quality>9.</quality>
          <le>9.0655612945556641e-001</le></_>
        <_><var>5303</var>
          <quality>9.</quality>
          <le>9.0622842311859131e-001</le></_>
        <_><var>5258</var>
          <quality>9.</quality>
          <le>9.4413661956787109e-001</le></_>
        <_><var>5256</var>
          <quality>9.</quality>
          <le>9.4043862819671631e-001</le></_>
        <_><var>5250</var>
          <quality>9.</quality>
          <le>9.1944980621337891e-001</le></_>
        <_><var>5245</var>
          <quality>9.</quality>
          <le>9.4947010278701782e-001</le></_>
        <_><var>5197</var>
          <quality>9.</quality>
          <le>9.4955527782440186e-001</le></_>
        <_><var>5187</var>
          <quality>9.</quality>
          <le>9.2714983224868774e-001</le></_>
        <_><var>5165</var>
          <quality>9.</quality>
          <le>9.2464464902877808e-001</le></_>
        <_><var>5137</var>
          <quality>9.</quality>
          <le>9.4025844335556030e-001</le></_>
        <_><var>5117</var>
          <quality>9.</quality>
          <le>9.4027835130691528e-001</le></_>
        <_><var>5095</var>
          <quality>9.</quality>
          <le>9.5556873083114624e-001</le></_>
        <_><var>5094</var>
          <quality>9.</quality>
          <le>9.6647155284881592e-001</le></_>
        <_><var>5093</var>
          <quality>9.</quality>
          <le>9.5294284820556641e-001</le></_>
        <_><var>5074</var>
          <quality>9.</quality>
          <le>9.5961248874664307e-001</le></_>
        <_><var>5051</var>
          <quality>9.</quality>
          <le>9.4155955314636230e-001</le></_>
        <_><var>5033</var>
          <quality>9.</quality>
          <le>9.6391350030899048e-001</le></_>
        <_><var>5025</var>
          <quality>9.</quality>
          <le>9.6997374296188354e-001</le></_>
        <_><var>5020</var>
          <quality>9.</quality>
          <le>9.4572353363037109e-001</le></_>
        <_><var>5013</var>
          <quality>9.</quality>
          <le>9.5409339666366577e-001</le></_>
        <_><var>4979</var>
          <quality>9.</quality>
          <le>9.1731315851211548e-001</le></_>
        <_><var>4968</var>
          <quality>9.</quality>
          <le>9.3439435958862305e-001</le></_>
        <_><var>4966</var>
          <quality>9.</quality>
          <le>8.9528912305831909e-001</le></_>
        <_><var>4948</var>
          <quality>9.</quality>
          <le>8.9516663551330566e-001</le></_>
        <_><var>4947</var>
          <quality>9.</quality>
          <le>9.3855017423629761e-001</le></_>
        <_><var>4942</var>
          <quality>9.</quality>
          <le>9.5582735538482666e-001</le></_>
        <_><var>4929</var>
          <quality>9.</quality>
          <le>9.5497155189514160e-001</le></_>
        <_><var>4924</var>
          <quality>9.</quality>
          <le>9.3787688016891479e-001</le></_>
        <_><var>4906</var>
          <quality>9.</quality>
          <le>9.3575847148895264e-001</le></_>
        <_><var>4902</var>
          <quality>9.</quality>
          <le>9.3923318386077881e-001</le></_>
        <_><var>4892</var>
          <quality>9.</quality>
          <le>8.3478605747222900e-001</le></_>
        <_><var>4891</var>
          <quality>9.</quality>
          <le>9.5705217123031616e-001</le></_>
        <_><var>4885</var>
          <quality>9.</quality>
          <le>9.3127489089965820e-001</le></_>
        <_><var>4883</var>
          <quality>9.</quality>
          <le>9.4494223594665527e-001</le></_>
        <_><var>4848</var>
          <quality>9.</quality>
          <le>9.5432984828948975e-001</le></_>
        <_><var>4820</var>
          <quality>9.</quality>
          <le>9.1507542133331299e-001</le></_>
        <_><var>4815</var>
          <quality>9.</quality>
          <le>8.9514088630676270e-001</le></_>
        <_><var>4786</var>
          <quality>9.</quality>
          <le>9.5443558692932129e-001</le></_>
        <_><var>4762</var>
          <quality>9.</quality>
          <le>9.5327711105346680e-001</le></_>
        <_><var>4759</var>
          <quality>9.</quality>
          <gt>9.1510945558547974e-001</gt></_>
        <_><var>4756</var>
          <quality>9.</quality>
          <gt>9.1853159666061401e-001</gt></_>
        <_><var>4748</var>
          <quality>9.</quality>
          <le>9.2364883422851563e-001</le></_>
        <_><var>4746</var>
          <quality>9.</quality>
          <le>9.3628060817718506e-001</le></_>
        <_><var>4730</var>
          <quality>9.</quality>
          <le>9.4584405422210693e-001</le></_>
        <_><var>4726</var>
          <quality>9.</quality>
          <le>9.4815289974212646e-001</le></_>
        <_><var>4716</var>
          <quality>9.</quality>
          <le>8.9165580272674561e-001</le></_>
        <_><var>4669</var>
          <quality>9.</quality>
          <le>9.2736244201660156e-001</le></_>
        <_><var>4668</var>
          <quality>9.</quality>
          <le>9.5755171775817871e-001</le></_>
        <_><var>4663</var>
          <quality>9.</quality>
          <le>9.5288628339767456e-001</le></_>
        <_><var>4656</var>
          <quality>9.</quality>
          <gt>9.1025733947753906e-001</gt></_>
        <_><var>4632</var>
          <quality>9.</quality>
          <le>9.3091595172882080e-001</le></_>
        <_><var>4608</var>
          <quality>9.</quality>
          <le>9.4340276718139648e-001</le></_>
        <_><var>4601</var>
          <quality>9.</quality>
          <le>9.4865918159484863e-001</le></_>
        <_><var>4600</var>
          <quality>9.</quality>
          <le>9.0417754650115967e-001</le></_>
        <_><var>4599</var>
          <quality>9.</quality>
          <gt>9.4884562492370605e-001</gt></_>
        <_><var>4562</var>
          <quality>9.</quality>
          <gt>8.6933434009552002e-001</gt></_>
        <_><var>4537</var>
          <quality>9.</quality>
          <le>9.5463871955871582e-001</le></_>
        <_><var>4525</var>
          <quality>9.</quality>
          <le>9.1255557537078857e-001</le></_>
        <_><var>4509</var>
          <quality>9.</quality>
          <gt>8.8144618272781372e-001</gt></_>
        <_><var>4503</var>
          <quality>9.</quality>
          <gt>9.0101790428161621e-001</gt></_>
        <_><var>4500</var>
          <quality>9.</quality>
          <gt>9.0556144714355469e-001</gt></_>
        <_><var>4445</var>
          <quality>9.</quality>
          <le>9.5193779468536377e-001</le></_>
        <_><var>4396</var>
          <quality>9.</quality>
          <le>9.1391170024871826e-001</le></_>
        <_><var>4315</var>
          <quality>9.</quality>
          <le>8.9587420225143433e-001</le></_>
        <_><var>4228</var>
          <quality>9.</quality>
          <le>9.5160484313964844e-001</le></_>
        <_><var>4218</var>
          <quality>9.</quality>
          <le>9.3104898929595947e-001</le></_>
        <_><var>4210</var>
          <quality>9.</quality>
          <le>8.5113298892974854e-001</le></_>
        <_><var>4209</var>
          <quality>9.</quality>
          <le>9.6097093820571899e-001</le></_>
        <_><var>4169</var>
          <quality>9.</quality>
          <le>9.0519702434539795e-001</le></_>
        <_><var>4036</var>
          <quality>9.</quality>
          <le>9.6359372138977051e-001</le></_>
        <_><var>3941</var>
          <quality>9.</quality>
          <le>9.2637193202972412e-001</le></_>
        <_><var>3933</var>
          <quality>9.</quality>
          <le>9.3773448467254639e-001</le></_>
        <_><var>3928</var>
          <quality>9.</quality>
          <le>9.4500881433486938e-001</le></_>
        <_><var>3870</var>
          <quality>9.</quality>
          <le>9.2653954029083252e-001</le></_>
        <_><var>3868</var>
          <quality>9.</quality>
          <le>9.4667005538940430e-001</le></_>
        <_><var>3837</var>
          <quality>9.</quality>
          <le>9.3813729286193848e-001</le></_>
        <_><var>3797</var>
          <quality>9.</quality>
          <le>9.3108284473419189e-001</le></_>
        <_><var>3770</var>
          <quality>9.</quality>
          <le>9.2553591728210449e-001</le></_>
        <_><var>3759</var>
          <quality>9.</quality>
          <le>9.4191157817840576e-001</le></_>
        <_><var>3758</var>
          <quality>9.</quality>
          <le>9.4415438175201416e-001</le></_>
        <_><var>3742</var>
          <quality>9.</quality>
          <le>9.0999007225036621e-001</le></_>
        <_><var>3728</var>
          <quality>9.</quality>
          <le>9.2528444528579712e-001</le></_>
        <_><var>3662</var>
          <quality>9.</quality>
          <le>8.7690174579620361e-001</le></_>
        <_><var>3657</var>
          <quality>9.</quality>
          <gt>9.0034800767898560e-001</gt></_>
        <_><var>3655</var>
          <quality>9.</quality>
          <le>9.4767105579376221e-001</le></_>
        <_><var>3579</var>
          <quality>9.</quality>
          <gt>8.9873600006103516e-001</gt></_>
        <_><var>3574</var>
          <quality>9.</quality>
          <le>9.6637392044067383e-001</le></_>
        <_><var>3538</var>
          <quality>9.</quality>
          <gt>9.1439235210418701e-001</gt></_>
        <_><var>3524</var>
          <quality>9.</quality>
          <le>9.5164555311203003e-001</le></_>
        <_><var>3508</var>
          <quality>9.</quality>
          <gt>9.0743339061737061e-001</gt></_>
        <_><var>3506</var>
          <quality>9.</quality>
          <gt>9.2500758171081543e-001</gt></_>
        <_><var>3504</var>
          <quality>9.</quality>
          <gt>8.8374382257461548e-001</gt></_>
        <_><var>3501</var>
          <quality>9.</quality>
          <gt>8.8236159086227417e-001</gt></_>
        <_><var>3497</var>
          <quality>9.</quality>
          <le>9.3664312362670898e-001</le></_>
        <_><var>3482</var>
          <quality>9.</quality>
          <gt>9.0761965513229370e-001</gt></_>
        <_><var>3481</var>
          <quality>9.</quality>
          <le>9.0001404285430908e-001</le></_>
        <_><var>3479</var>
          <quality>9.</quality>
          <le>9.3888020515441895e-001</le></_>
        <_><var>3439</var>
          <quality>9.</quality>
          <le>9.5801347494125366e-001</le></_>
        <_><var>3435</var>
          <quality>9.</quality>
          <le>9.1831207275390625e-001</le></_>
        <_><var>3423</var>
          <quality>9.</quality>
          <le>9.5400357246398926e-001</le></_>
        <_><var>3417</var>
          <quality>9.</quality>
          <gt>9.0265142917633057e-001</gt></_>
        <_><var>3381</var>
          <quality>9.</quality>
          <le>9.3797397613525391e-001</le></_>
        <_><var>3337</var>
          <quality>9.</quality>
          <le>9.2081224918365479e-001</le></_>
        <_><var>3336</var>
          <quality>9.</quality>
          <le>9.4591248035430908e-001</le></_>
        <_><var>3320</var>
          <quality>9.</quality>
          <le>9.2451345920562744e-001</le></_>
        <_><var>3319</var>
          <quality>9.</quality>
          <le>9.5842128992080688e-001</le></_>
        <_><var>3316</var>
          <quality>9.</quality>
          <le>9.5435619354248047e-001</le></_>
        <_><var>3292</var>
          <quality>9.</quality>
          <le>9.3282073736190796e-001</le></_>
        <_><var>3240</var>
          <quality>9.</quality>
          <le>9.5263588428497314e-001</le></_>
        <_><var>3118</var>
          <quality>9.</quality>
          <le>9.1846644878387451e-001</le></_>
        <_><var>3115</var>
          <quality>9.</quality>
          <le>9.6403741836547852e-001</le></_>
        <_><var>3105</var>
          <quality>9.</quality>
          <gt>9.0448784828186035e-001</gt></_>
        <_><var>3102</var>
          <quality>9.</quality>
          <le>9.4805568456649780e-001</le></_>
        <_><var>3000</var>
          <quality>9.</quality>
          <gt>9.1014897823333740e-001</gt></_>
        <_><var>2997</var>
          <quality>9.</quality>
          <le>9.4381880760192871e-001</le></_>
        <_><var>2973</var>
          <quality>9.</quality>
          <le>9.3015420436859131e-001</le></_>
        <_><var>2972</var>
          <quality>9.</quality>
          <le>9.4855332374572754e-001</le></_>
        <_><var>2971</var>
          <quality>9.</quality>
          <le>8.8466954231262207e-001</le></_>
        <_><var>2969</var>
          <quality>9.</quality>
          <le>8.9376723766326904e-001</le></_>
        <_><var>2946</var>
          <quality>9.</quality>
          <le>9.2488026618957520e-001</le></_>
        <_><var>2902</var>
          <quality>9.</quality>
          <le>9.2603611946105957e-001</le></_>
        <_><var>2892</var>
          <quality>9.</quality>
          <le>9.5291221141815186e-001</le></_>
        <_><var>2864</var>
          <quality>9.</quality>
          <le>9.3681168556213379e-001</le></_>
        <_><var>2863</var>
          <quality>9.</quality>
          <le>9.2423629760742188e-001</le></_>
        <_><var>2824</var>
          <quality>9.</quality>
          <le>9.5296889543533325e-001</le></_>
        <_><var>2804</var>
          <quality>9.</quality>
          <le>9.5734488964080811e-001</le></_>
        <_><var>2789</var>
          <quality>9.</quality>
          <le>9.5009994506835938e-001</le></_>
        <_><var>2782</var>
          <quality>9.</quality>
          <le>8.9721721410751343e-001</le></_>
        <_><var>2754</var>
          <quality>9.</quality>
          <le>9.3692803382873535e-001</le></_>
        <_><var>2752</var>
          <quality>9.</quality>
          <le>9.3297356367111206e-001</le></_>
        <_><var>2743</var>
          <quality>9.</quality>
          <le>9.1536939144134521e-001</le></_>
        <_><var>2715</var>
          <quality>9.</quality>
          <le>9.1654706001281738e-001</le></_>
        <_><var>2705</var>
          <quality>9.</quality>
          <le>9.2081475257873535e-001</le></_>
        <_><var>2697</var>
          <quality>9.</quality>
          <le>9.4347488880157471e-001</le></_>
        <_><var>2671</var>
          <quality>9.</quality>
          <le>9.2914545536041260e-001</le></_>
        <_><var>2660</var>
          <quality>9.</quality>
          <le>9.3409138917922974e-001</le></_>
        <_><var>2659</var>
          <quality>9.</quality>
          <le>9.0599775314331055e-001</le></_>
        <_><var>2650</var>
          <quality>9.</quality>
          <le>9.2225664854049683e-001</le></_>
        <_><var>2623</var>
          <quality>9.</quality>
          <le>9.4370371103286743e-001</le></_>
        <_><var>2618</var>
          <quality>9.</quality>
          <le>9.5222461223602295e-001</le></_>
        <_><var>2616</var>
          <quality>9.</quality>
          <le>9.1567647457122803e-001</le></_>
        <_><var>2614</var>
          <quality>9.</quality>
          <le>9.5253849029541016e-001</le></_>
        <_><var>2602</var>
          <quality>9.</quality>
          <le>9.4377708435058594e-001</le></_>
        <_><var>2601</var>
          <quality>9.</quality>
          <le>9.4035696983337402e-001</le></_>
        <_><var>2567</var>
          <quality>9.</quality>
          <le>9.1800534725189209e-001</le></_>
        <_><var>2540</var>
          <quality>9.</quality>
          <le>9.6744519472122192e-001</le></_>
        <_><var>2515</var>
          <quality>9.</quality>
          <le>9.1775882244110107e-001</le></_>
        <_><var>2509</var>
          <quality>9.</quality>
          <gt>8.9443755149841309e-001</gt></_>
        <_><var>2506</var>
          <quality>9.</quality>
          <gt>9.0124452114105225e-001</gt></_>
        <_><var>2463</var>
          <quality>9.</quality>
          <le>8.8574779033660889e-001</le></_>
        <_><var>2452</var>
          <quality>9.</quality>
          <le>9.0104913711547852e-001</le></_>
        <_><var>2366</var>
          <quality>9.</quality>
          <le>8.8975644111633301e-001</le></_>
        <_><var>2353</var>
          <quality>9.</quality>
          <le>7.9163193702697754e-001</le></_>
        <_><var>2328</var>
          <quality>9.</quality>
          <le>9.1114610433578491e-001</le></_>
        <_><var>2263</var>
          <quality>9.</quality>
          <le>9.4515699148178101e-001</le></_>
        <_><var>2234</var>
          <quality>9.</quality>
          <le>9.3997496366500854e-001</le></_>
        <_><var>2231</var>
          <quality>9.</quality>
          <le>9.2063999176025391e-001</le></_>
        <_><var>2214</var>
          <quality>9.</quality>
          <le>8.7481856346130371e-001</le></_>
        <_><var>2200</var>
          <quality>9.</quality>
          <le>8.7194085121154785e-001</le></_>
        <_><var>2181</var>
          <quality>9.</quality>
          <le>9.2510950565338135e-001</le></_>
        <_><var>2179</var>
          <quality>9.</quality>
          <le>8.8069045543670654e-001</le></_>
        <_><var>2113</var>
          <quality>9.</quality>
          <le>8.8992464542388916e-001</le></_>
        <_><var>2085</var>
          <quality>9.</quality>
          <le>9.4304823875427246e-001</le></_>
        <_><var>2066</var>
          <quality>9.</quality>
          <le>8.7063634395599365e-001</le></_>
        <_><var>2063</var>
          <quality>9.</quality>
          <le>9.2810308933258057e-001</le></_>
        <_><var>2060</var>
          <quality>9.</quality>
          <le>9.3001657724380493e-001</le></_>
        <_><var>2057</var>
          <quality>9.</quality>
          <le>9.3518763780593872e-001</le></_>
        <_><var>2055</var>
          <quality>9.</quality>
          <le>9.0731221437454224e-001</le></_>
        <_><var>1873</var>
          <quality>9.</quality>
          <le>9.5624184608459473e-001</le></_>
        <_><var>1831</var>
          <quality>9.</quality>
          <le>9.3637377023696899e-001</le></_>
        <_><var>1778</var>
          <quality>9.</quality>
          <gt>9.1200459003448486e-001</gt></_>
        <_><var>1713</var>
          <quality>9.</quality>
          <le>9.5980000495910645e-001</le></_>
        <_><var>1645</var>
          <quality>9.</quality>
          <le>9.5094418525695801e-001</le></_>
        <_><var>1622</var>
          <quality>9.</quality>
          <gt>9.0942394733428955e-001</gt></_>
        <_><var>1564</var>
          <quality>9.</quality>
          <gt>9.0497106313705444e-001</gt></_>
        <_><var>1507</var>
          <quality>9.</quality>
          <gt>8.9480042457580566e-001</gt></_>
        <_><var>1502</var>
          <quality>9.</quality>
          <gt>9.3176424503326416e-001</gt></_>
        <_><var>1501</var>
          <quality>9.</quality>
          <gt>9.0860223770141602e-001</gt></_>
        <_><var>1441</var>
          <quality>9.</quality>
          <le>9.1195273399353027e-001</le></_>
        <_><var>1414</var>
          <quality>9.</quality>
          <le>8.7612032890319824e-001</le></_>
        <_><var>1382</var>
          <quality>9.</quality>
          <le>9.6063315868377686e-001</le></_>
        <_><var>1345</var>
          <quality>9.</quality>
          <le>9.3839597702026367e-001</le></_>
        <_><var>1317</var>
          <quality>9.</quality>
          <le>9.1525065898895264e-001</le></_>
        <_><var>1290</var>
          <quality>9.</quality>
          <le>9.5676112174987793e-001</le></_>
        <_><var>1284</var>
          <quality>9.</quality>
          <le>9.3560612201690674e-001</le></_>
        <_><var>1214</var>
          <quality>9.</quality>
          <le>9.6227848529815674e-001</le></_>
        <_><var>1195</var>
          <quality>9.</quality>
          <le>8.0978971719741821e-001</le></_>
        <_><var>1188</var>
          <quality>9.</quality>
          <le>7.8541028499603271e-001</le></_>
        <_><var>1185</var>
          <quality>9.</quality>
          <le>9.1121137142181396e-001</le></_>
        <_><var>1174</var>
          <quality>9.</quality>
          <le>8.8111573457717896e-001</le></_>
        <_><var>1164</var>
          <quality>9.</quality>
          <le>9.4754648208618164e-001</le></_>
        <_><var>1148</var>
          <quality>9.</quality>
          <le>8.0941069126129150e-001</le></_>
        <_><var>1087</var>
          <quality>9.</quality>
          <le>8.7888991832733154e-001</le></_>
        <_><var>1084</var>
          <quality>9.</quality>
          <le>9.4430607557296753e-001</le></_>
        <_><var>1056</var>
          <quality>9.</quality>
          <le>9.5254296064376831e-001</le></_>
        <_><var>1049</var>
          <quality>9.</quality>
          <le>8.8225460052490234e-001</le></_>
        <_><var>1045</var>
          <quality>9.</quality>
          <le>8.6162090301513672e-001</le></_>
        <_><var>1035</var>
          <quality>9.</quality>
          <le>9.4529998302459717e-001</le></_>
        <_><var>1018</var>
          <quality>9.</quality>
          <le>9.6592354774475098e-001</le></_>
        <_><var>978</var>
          <quality>9.</quality>
          <gt>9.2693746089935303e-001</gt></_>
        <_><var>898</var>
          <quality>9.</quality>
          <le>9.5914125442504883e-001</le></_>
        <_><var>895</var>
          <quality>9.</quality>
          <le>8.1793648004531860e-001</le></_>
        <_><var>888</var>
          <quality>9.</quality>
          <le>9.4059789180755615e-001</le></_>
        <_><var>846</var>
          <quality>9.</quality>
          <le>9.2623090744018555e-001</le></_>
        <_><var>805</var>
          <quality>9.</quality>
          <le>9.2616742849349976e-001</le></_>
        <_><var>781</var>
          <quality>9.</quality>
          <le>9.4421911239624023e-001</le></_>
        <_><var>778</var>
          <quality>9.</quality>
          <le>9.2508614063262939e-001</le></_>
        <_><var>777</var>
          <quality>9.</quality>
          <le>8.9280533790588379e-001</le></_>
        <_><var>659</var>
          <quality>9.</quality>
          <le>9.1783088445663452e-001</le></_>
        <_><var>418</var>
          <quality>9.</quality>
          <le>8.1201481819152832e-001</le></_>
        <_><var>413</var>
          <quality>9.</quality>
          <le>8.7983238697052002e-001</le></_>
        <_><var>337</var>
          <quality>9.</quality>
          <le>7.7546799182891846e-001</le></_>
        <_><var>304</var>
          <quality>9.</quality>
          <le>8.1274664402008057e-001</le></_>
        <_><var>290</var>
          <quality>9.</quality>
          <le>7.6280760765075684e-001</le></_>
        <_><var>215</var>
          <quality>9.</quality>
          <le>8.7021028995513916e-001</le></_>
        <_><var>207</var>
          <quality>9.</quality>
          <le>7.7885413169860840e-001</le></_>
        <_><var>140</var>
          <quality>9.</quality>
          <le>9.2289471626281738e-001</le></_>
        <_><var>138</var>
          <quality>9.</quality>
          <le>9.2774689197540283e-001</le></_>
        <_><var>118</var>
          <quality>9.</quality>
          <le>9.3544685840606689e-001</le></_>
        <_><var>93</var>
          <quality>9.</quality>
          <le>8.6219978332519531e-001</le></_>
        <_><var>90</var>
          <quality>9.</quality>
          <le>9.8032969236373901e-001</le></_>
        <_><var>82</var>
          <quality>9.</quality>
          <le>9.3325626850128174e-001</le></_>
        <_><var>7493</var>
          <quality>8.6250000000000000e+000</quality>
          <le>8.8103848695755005e-001</le></_>
        <_><var>7484</var>
          <quality>8.6250000000000000e+000</quality>
          <gt>8.1473135948181152e-001</gt></_>
        <_><var>7424</var>
          <quality>8.6250000000000000e+000</quality>
          <gt>8.2191944122314453e-001</gt></_>
        <_><var>7414</var>
          <quality>8.6250000000000000e+000</quality>
          <gt>8.5543632507324219e-001</gt></_>
        <_><var>7396</var>
          <quality>8.6250000000000000e+000</quality>
          <gt>8.0055165290832520e-001</gt></_>
        <_><var>7387</var>
          <quality>8.6250000000000000e+000</quality>
          <gt>8.0378699302673340e-001</gt></_>
        <_><var>7360</var>
          <quality>8.6250000000000000e+000</quality>
          <gt>8.0598056316375732e-001</gt></_>
        <_><var>7351</var>
          <quality>8.6250000000000000e+000</quality>
          <gt>8.7001436948776245e-001</gt></_>
        <_><var>7322</var>
          <quality>8.6250000000000000e+000</quality>
          <gt>8.1991040706634521e-001</gt></_>
        <_><var>7318</var>
          <quality>8.6250000000000000e+000</quality>
          <gt>7.9498833417892456e-001</gt></_>
        <_><var>7303</var>
          <quality>8.6250000000000000e+000</quality>
          <gt>7.9268616437911987e-001</gt></_>
        <_><var>7302</var>
          <quality>8.6250000000000000e+000</quality>
          <gt>8.0749559402465820e-001</gt></_>
        <_><var>7293</var>
          <quality>8.6250000000000000e+000</quality>
          <gt>8.1629347801208496e-001</gt></_>
        <_><var>7284</var>
          <quality>8.6250000000000000e+000</quality>
          <gt>8.6759179830551147e-001</gt></_>
        <_><var>7283</var>
          <quality>8.6250000000000000e+000</quality>
          <le>8.5562771558761597e-001</le></_>
        <_><var>7235</var>
          <quality>8.6250000000000000e+000</quality>
          <gt>8.0376505851745605e-001</gt></_>
        <_><var>7226</var>
          <quality>8.6250000000000000e+000</quality>
          <gt>8.1004971265792847e-001</gt></_>
        <_><var>7225</var>
          <quality>8.6250000000000000e+000</quality>
          <gt>8.5684651136398315e-001</gt></_>
        <_><var>7183</var>
          <quality>8.6250000000000000e+000</quality>
          <le>8.8092535734176636e-001</le></_>
        <_><var>7180</var>
          <quality>8.6250000000000000e+000</quality>
          <gt>8.1294143199920654e-001</gt></_>
        <_><var>7118</var>
          <quality>8.6250000000000000e+000</quality>
          <le>8.6895084381103516e-001</le></_>
        <_><var>7106</var>
          <quality>8.6250000000000000e+000</quality>
          <gt>8.0805468559265137e-001</gt></_>
        <_><var>7096</var>
          <quality>8.6250000000000000e+000</quality>
          <gt>8.6286795139312744e-001</gt></_>
        <_><var>7094</var>
          <quality>8.6250000000000000e+000</quality>
          <gt>8.4823298454284668e-001</gt></_>
        <_><var>7093</var>
          <quality>8.6250000000000000e+000</quality>
          <gt>8.4316623210906982e-001</gt></_>
        <_><var>7079</var>
          <quality>8.6250000000000000e+000</quality>
          <gt>8.3988356590270996e-001</gt></_>
        <_><var>7067</var>
          <quality>8.6250000000000000e+000</quality>
          <gt>8.6075335741043091e-001</gt></_>
        <_><var>7065</var>
          <quality>8.6250000000000000e+000</quality>
          <gt>8.3523529767990112e-001</gt></_>
        <_><var>7059</var>
          <quality>8.6250000000000000e+000</quality>
          <gt>8.5398954153060913e-001</gt></_>
        <_><var>7044</var>
          <quality>8.6250000000000000e+000</quality>
          <gt>8.6527061462402344e-001</gt></_>
        <_><var>7040</var>
          <quality>8.6250000000000000e+000</quality>
          <gt>8.4819281101226807e-001</gt></_>
        <_><var>7033</var>
          <quality>8.6250000000000000e+000</quality>
          <gt>8.6245894432067871e-001</gt></_>
        <_><var>7026</var>
          <quality>8.6250000000000000e+000</quality>
          <gt>8.4802627563476563e-001</gt></_>
        <_><var>7022</var>
          <quality>8.6250000000000000e+000</quality>
          <gt>8.3184957504272461e-001</gt></_>
        <_><var>7015</var>
          <quality>8.6250000000000000e+000</quality>
          <gt>8.4341120719909668e-001</gt></_>
        <_><var>6998</var>
          <quality>8.6250000000000000e+000</quality>
          <le>9.6361923217773438e-001</le></_>
        <_><var>6995</var>
          <quality>8.6250000000000000e+000</quality>
          <le>9.4524037837982178e-001</le></_>
        <_><var>6988</var>
          <quality>8.6250000000000000e+000</quality>
          <le>9.5641064643859863e-001</le></_>
        <_><var>6987</var>
          <quality>8.6250000000000000e+000</quality>
          <le>9.4418621063232422e-001</le></_>
        <_><var>6986</var>
          <quality>8.6250000000000000e+000</quality>
          <le>9.1284978389739990e-001</le></_>
        <_><var>6976</var>
          <quality>8.6250000000000000e+000</quality>
          <le>9.4560873508453369e-001</le></_>
        <_><var>6975</var>
          <quality>8.6250000000000000e+000</quality>
          <le>8.9950704574584961e-001</le></_>
        <_><var>6972</var>
          <quality>8.6250000000000000e+000</quality>
          <le>9.3832671642303467e-001</le></_>
        <_><var>6970</var>
          <quality>8.6250000000000000e+000</quality>
          <le>7.9461491107940674e-001</le></_>
        <_><var>6969</var>
          <quality>8.6250000000000000e+000</quality>
          <le>9.0236413478851318e-001</le></_>
        <_><var>6968</var>
          <quality>8.6250000000000000e+000</quality>
          <le>7.9196327924728394e-001</le></_>
        <_><var>6966</var>
          <quality>8.6250000000000000e+000</quality>
          <le>9.0045177936553955e-001</le></_>
        <_><var>6957</var>
          <quality>8.6250000000000000e+000</quality>
          <le>9.2727994918823242e-001</le></_>
        <_><var>6956</var>
          <quality>8.6250000000000000e+000</quality>
          <le>9.4167268276214600e-001</le></_>
        <_><var>6941</var>
          <quality>8.6250000000000000e+000</quality>
          <le>8.7585562467575073e-001</le></_>
        <_><var>6937</var>
          <quality>8.6250000000000000e+000</quality>
          <le>9.3455922603607178e-001</le></_>
        <_><var>6935</var>
          <quality>8.6250000000000000e+000</quality>
          <le>8.8991373777389526e-001</le></_>
        <_><var>6933</var>
          <quality>8.6250000000000000e+000</quality>
          <le>9.0790456533432007e-001</le></_>
        <_><var>6923</var>
          <quality>8.6250000000000000e+000</quality>
          <le>9.5338761806488037e-001</le></_>
        <_><var>6902</var>
          <quality>8.6250000000000000e+000</quality>
          <le>8.8197511434555054e-001</le></_>
        <_><var>6900</var>
          <quality>8.6250000000000000e+000</quality>
          <le>9.2821973562240601e-001</le></_>
        <_><var>6898</var>
          <quality>8.6250000000000000e+000</quality>
          <le>8.8736748695373535e-001</le></_>
        <_><var>6896</var>
          <quality>8.6250000000000000e+000</quality>
          <le>8.1135946512222290e-001</le></_>
        <_><var>6864</var>
          <quality>8.6250000000000000e+000</quality>
          <le>9.2280673980712891e-001</le></_>
        <_><var>6861</var>
          <quality>8.6250000000000000e+000</quality>
          <le>9.2783832550048828e-001</le></_>
        <_><var>6839</var>
          <quality>8.6250000000000000e+000</quality>
          <le>9.5057976245880127e-001</le></_>
        <_><var>6835</var>
          <quality>8.6250000000000000e+000</quality>
          <le>8.9937639236450195e-001</le></_>
        <_><var>6832</var>
          <quality>8.6250000000000000e+000</quality>
          <le>8.8211011886596680e-001</le></_>
        <_><var>6829</var>
          <quality>8.6250000000000000e+000</quality>
          <le>9.2339301109313965e-001</le></_>
        <_><var>6827</var>
          <quality>8.6250000000000000e+000</quality>
          <le>9.5611369609832764e-001</le></_>
        <_><var>6821</var>
          <quality>8.6250000000000000e+000</quality>
          <le>9.5591878890991211e-001</le></_>
        <_><var>6818</var>
          <quality>8.6250000000000000e+000</quality>
          <le>8.8157248497009277e-001</le></_>
        <_><var>6785</var>
          <quality>8.6250000000000000e+000</quality>
          <le>9.0915828943252563e-001</le></_>
        <_><var>6765</var>
          <quality>8.6250000000000000e+000</quality>
          <le>9.2448931932449341e-001</le></_>
        <_><var>6764</var>
          <quality>8.6250000000000000e+000</quality>
          <le>9.0867716073989868e-001</le></_>
        <_><var>6760</var>
          <quality>8.6250000000000000e+000</quality>
          <le>9.1855925321578979e-001</le></_>
        <_><var>6758</var>
          <quality>8.6250000000000000e+000</quality>
          <le>8.3214652538299561e-001</le></_>
        <_><var>6746</var>
          <quality>8.6250000000000000e+000</quality>
          <le>8.7211745977401733e-001</le></_>
        <_><var>6729</var>
          <quality>8.6250000000000000e+000</quality>
          <le>9.6450400352478027e-001</le></_>
        <_><var>6721</var>
          <quality>8.6250000000000000e+000</quality>
          <le>7.9247242212295532e-001</le></_>
        <_><var>6715</var>
          <quality>8.6250000000000000e+000</quality>
          <le>9.4768369197845459e-001</le></_>
        <_><var>6709</var>
          <quality>8.6250000000000000e+000</quality>
          <le>8.6997407674789429e-001</le></_>
        <_><var>6701</var>
          <quality>8.6250000000000000e+000</quality>
          <le>9.4824522733688354e-001</le></_>
        <_><var>6698</var>
          <quality>8.6250000000000000e+000</quality>
          <le>9.6309256553649902e-001</le></_>
        <_><var>6694</var>
          <quality>8.6250000000000000e+000</quality>
          <le>9.4603645801544189e-001</le></_>
        <_><var>6689</var>
          <quality>8.6250000000000000e+000</quality>
          <le>8.7413430213928223e-001</le></_>
        <_><var>6678</var>
          <quality>8.6250000000000000e+000</quality>
          <le>9.6225380897521973e-001</le></_>
        <_><var>6668</var>
          <quality>8.6250000000000000e+000</quality>
          <le>9.0036940574645996e-001</le></_>
        <_><var>6654</var>
          <quality>8.6250000000000000e+000</quality>
          <le>9.5883440971374512e-001</le></_>
        <_><var>6651</var>
          <quality>8.6250000000000000e+000</quality>
          <le>9.6486824750900269e-001</le></_>
        <_><var>6636</var>
          <quality>8.6250000000000000e+000</quality>
          <le>7.8327965736389160e-001</le></_>
        <_><var>6634</var>
          <quality>8.6250000000000000e+000</quality>
          <le>9.5094203948974609e-001</le></_>
        <_><var>6628</var>
          <quality>8.6250000000000000e+000</quality>
          <le>9.1696858406066895e-001</le></_>
        <_><var>6626</var>
          <quality>8.6250000000000000e+000</quality>
          <le>9.4978129863739014e-001</le></_>
        <_><var>6624</var>
          <quality>8.6250000000000000e+000</quality>
          <le>8.8350480794906616e-001</le></_>
        <_><var>6622</var>
          <quality>8.6250000000000000e+000</quality>
          <le>8.7579739093780518e-001</le></_>
        <_><var>6619</var>
          <quality>8.6250000000000000e+000</quality>
          <le>9.6071642637252808e-001</le></_>
        <_><var>6617</var>
          <quality>8.6250000000000000e+000</quality>
          <le>9.5792537927627563e-001</le></_>
        <_><var>6615</var>
          <quality>8.6250000000000000e+000</quality>
          <le>9.6296346187591553e-001</le></_>
        <_><var>6614</var>
          <quality>8.6250000000000000e+000</quality>
          <le>9.3579530715942383e-001</le></_>
        <_><var>6606</var>
          <quality>8.6250000000000000e+000</quality>
          <le>8.3301395177841187e-001</le></_>
        <_><var>6603</var>
          <quality>8.6250000000000000e+000</quality>
          <le>9.1752463579177856e-001</le></_>
        <_><var>6566</var>
          <quality>8.6250000000000000e+000</quality>
          <le>8.4496706724166870e-001</le></_>
        <_><var>6564</var>
          <quality>8.6250000000000000e+000</quality>
          <le>9.0542078018188477e-001</le></_>
        <_><var>6553</var>
          <quality>8.6250000000000000e+000</quality>
          <le>8.3458352088928223e-001</le></_>
        <_><var>6548</var>
          <quality>8.6250000000000000e+000</quality>
          <le>9.2597961425781250e-001</le></_>
        <_><var>6547</var>
          <quality>8.6250000000000000e+000</quality>
          <le>9.5593667030334473e-001</le></_>
        <_><var>6537</var>
          <quality>8.6250000000000000e+000</quality>
          <le>9.2122548818588257e-001</le></_>
        <_><var>6530</var>
          <quality>8.6250000000000000e+000</quality>
          <le>8.4201383590698242e-001</le></_>
        <_><var>6527</var>
          <quality>8.6250000000000000e+000</quality>
          <le>8.4043729305267334e-001</le></_>
        <_><var>6518</var>
          <quality>8.6250000000000000e+000</quality>
          <le>8.3300369977951050e-001</le></_>
        <_><var>6517</var>
          <quality>8.6250000000000000e+000</quality>
          <le>9.3522703647613525e-001</le></_>
        <_><var>6510</var>
          <quality>8.6250000000000000e+000</quality>
          <le>9.1333168745040894e-001</le></_>
        <_><var>6505</var>
          <quality>8.6250000000000000e+000</quality>
          <gt>9.5781540870666504e-001</gt></_>
        <_><var>6492</var>
          <quality>8.6250000000000000e+000</quality>
          <le>9.2398148775100708e-001</le></_>
        <_><var>6473</var>
          <quality>8.6250000000000000e+000</quality>
          <le>9.4894981384277344e-001</le></_>
        <_><var>6467</var>
          <quality>8.6250000000000000e+000</quality>
          <le>9.4940400123596191e-001</le></_>
        <_><var>6464</var>
          <quality>8.6250000000000000e+000</quality>
          <le>9.2281866073608398e-001</le></_>
        <_><var>6441</var>
          <quality>8.6250000000000000e+000</quality>
          <le>7.3931705951690674e-001</le></_>
        <_><var>6440</var>
          <quality>8.6250000000000000e+000</quality>
          <le>7.4361503124237061e-001</le></_>
        <_><var>6438</var>
          <quality>8.6250000000000000e+000</quality>
          <le>6.2205338478088379e-001</le></_>
        <_><var>6435</var>
          <quality>8.6250000000000000e+000</quality>
          <le>7.8214967250823975e-001</le></_>
        <_><var>6428</var>
          <quality>8.6250000000000000e+000</quality>
          <le>7.1673858165740967e-001</le></_>
        <_><var>6422</var>
          <quality>8.6250000000000000e+000</quality>
          <le>9.4106876850128174e-001</le></_>
        <_><var>6416</var>
          <quality>8.6250000000000000e+000</quality>
          <le>7.6240009069442749e-001</le></_>
        <_><var>6411</var>
          <quality>8.6250000000000000e+000</quality>
          <le>6.9107592105865479e-001</le></_>
        <_><var>6404</var>
          <quality>8.6250000000000000e+000</quality>
          <le>8.4521830081939697e-001</le></_>
        <_><var>6398</var>
          <quality>8.6250000000000000e+000</quality>
          <le>7.3669433593750000e-001</le></_>
        <_><var>6397</var>
          <quality>8.6250000000000000e+000</quality>
          <le>9.2367458343505859e-001</le></_>
        <_><var>6396</var>
          <quality>8.6250000000000000e+000</quality>
          <le>8.1765031814575195e-001</le></_>
        <_><var>6374</var>
          <quality>8.6250000000000000e+000</quality>
          <le>9.4617486000061035e-001</le></_>
        <_><var>6354</var>
          <quality>8.6250000000000000e+000</quality>
          <le>9.5879024267196655e-001</le></_>
        <_><var>6348</var>
          <quality>8.6250000000000000e+000</quality>
          <le>9.1475212574005127e-001</le></_>
        <_><var>6336</var>
          <quality>8.6250000000000000e+000</quality>
          <le>9.0048146247863770e-001</le></_>
        <_><var>6335</var>
          <quality>8.6250000000000000e+000</quality>
          <le>9.5983660221099854e-001</le></_>
        <_><var>6324</var>
          <quality>8.6250000000000000e+000</quality>
          <le>9.3881189823150635e-001</le></_>
        <_><var>6316</var>
          <quality>8.6250000000000000e+000</quality>
          <le>7.9425382614135742e-001</le></_>
        <_><var>6310</var>
          <quality>8.6250000000000000e+000</quality>
          <le>9.5413541793823242e-001</le></_>
        <_><var>6306</var>
          <quality>8.6250000000000000e+000</quality>
          <le>8.1153428554534912e-001</le></_>
        <_><var>6287</var>
          <quality>8.6250000000000000e+000</quality>
          <le>8.7004160881042480e-001</le></_>
        <_><var>6280</var>
          <quality>8.6250000000000000e+000</quality>
          <le>9.4344902038574219e-001</le></_>
        <_><var>6278</var>
          <quality>8.6250000000000000e+000</quality>
          <le>8.7591397762298584e-001</le></_>
        <_><var>6274</var>
          <quality>8.6250000000000000e+000</quality>
          <le>9.0216082334518433e-001</le></_>
        <_><var>6269</var>
          <quality>8.6250000000000000e+000</quality>
          <le>8.1025278568267822e-001</le></_>
        <_><var>6266</var>
          <quality>8.6250000000000000e+000</quality>
          <le>6.4457190036773682e-001</le></_>
        <_><var>6254</var>
          <quality>8.6250000000000000e+000</quality>
          <le>9.1991752386093140e-001</le></_>
        <_><var>6252</var>
          <quality>8.6250000000000000e+000</quality>
          <le>7.9701256752014160e-001</le></_>
        <_><var>6246</var>
          <quality>8.6250000000000000e+000</quality>
          <le>9.5943760871887207e-001</le></_>
        <_><var>6236</var>
          <quality>8.6250000000000000e+000</quality>
          <le>7.3324942588806152e-001</le></_>
        <_><var>6222</var>
          <quality>8.6250000000000000e+000</quality>
          <le>7.5214183330535889e-001</le></_>
        <_><var>6207</var>
          <quality>8.6250000000000000e+000</quality>
          <le>9.1809761524200439e-001</le></_>
        <_><var>6203</var>
          <quality>8.6250000000000000e+000</quality>
          <le>7.9710602760314941e-001</le></_>
        <_><var>6202</var>
          <quality>8.6250000000000000e+000</quality>
          <le>9.4329094886779785e-001</le></_>
        <_><var>6191</var>
          <quality>8.6250000000000000e+000</quality>
          <le>8.6850172281265259e-001</le></_>
        <_><var>6189</var>
          <quality>8.6250000000000000e+000</quality>
          <le>9.0293920040130615e-001</le></_>
        <_><var>6178</var>
          <quality>8.6250000000000000e+000</quality>
          <le>8.5223436355590820e-001</le></_>
        <_><var>6168</var>
          <quality>8.6250000000000000e+000</quality>
          <le>6.7078858613967896e-001</le></_>
        <_><var>6162</var>
          <quality>8.6250000000000000e+000</quality>
          <le>8.5259449481964111e-001</le></_>
        <_><var>6159</var>
          <quality>8.6250000000000000e+000</quality>
          <le>9.0445864200592041e-001</le></_>
        <_><var>6141</var>
          <quality>8.6250000000000000e+000</quality>
          <le>9.5257866382598877e-001</le></_>
        <_><var>6129</var>
          <quality>8.6250000000000000e+000</quality>
          <le>5.9187364578247070e-001</le></_>
        <_><var>6126</var>
          <quality>8.6250000000000000e+000</quality>
          <le>5.5563354492187500e-001</le></_>
        <_><var>6124</var>
          <quality>8.6250000000000000e+000</quality>
          <le>7.5616431236267090e-001</le></_>
        <_><var>6119</var>
          <quality>8.6250000000000000e+000</quality>
          <le>7.4901974201202393e-001</le></_>
        <_><var>6111</var>
          <quality>8.6250000000000000e+000</quality>
          <le>7.5587296485900879e-001</le></_>
        <_><var>6103</var>
          <quality>8.6250000000000000e+000</quality>
          <le>9.5959866046905518e-001</le></_>
        <_><var>6098</var>
          <quality>8.6250000000000000e+000</quality>
          <le>8.1654483079910278e-001</le></_>
        <_><var>6094</var>
          <quality>8.6250000000000000e+000</quality>
          <le>8.5955274105072021e-001</le></_>
        <_><var>6057</var>
          <quality>8.6250000000000000e+000</quality>
          <le>9.1877585649490356e-001</le></_>
        <_><var>6024</var>
          <quality>8.6250000000000000e+000</quality>
          <le>8.7177765369415283e-001</le></_>
        <_><var>6023</var>
          <quality>8.6250000000000000e+000</quality>
          <le>9.2400324344635010e-001</le></_>
        <_><var>6020</var>
          <quality>8.6250000000000000e+000</quality>
          <le>8.7404680252075195e-001</le></_>
        <_><var>6017</var>
          <quality>8.6250000000000000e+000</quality>
          <le>8.3709549903869629e-001</le></_>
        <_><var>5998</var>
          <quality>8.6250000000000000e+000</quality>
          <le>9.3811941146850586e-001</le></_>
        <_><var>5996</var>
          <quality>8.6250000000000000e+000</quality>
          <le>9.5409715175628662e-001</le></_>
        <_><var>5944</var>
          <quality>8.6250000000000000e+000</quality>
          <gt>8.9066457748413086e-001</gt></_>
        <_><var>5940</var>
          <quality>8.6250000000000000e+000</quality>
          <le>8.2387840747833252e-001</le></_>
        <_><var>5930</var>
          <quality>8.6250000000000000e+000</quality>
          <le>8.2662463188171387e-001</le></_>
        <_><var>5905</var>
          <quality>8.6250000000000000e+000</quality>
          <le>8.4002113342285156e-001</le></_>
        <_><var>5892</var>
          <quality>8.6250000000000000e+000</quality>
          <le>8.9528286457061768e-001</le></_>
        <_><var>5873</var>
          <quality>8.6250000000000000e+000</quality>
          <le>9.0765237808227539e-001</le></_>
        <_><var>5869</var>
          <quality>8.6250000000000000e+000</quality>
          <le>9.0153276920318604e-001</le></_>
        <_><var>5857</var>
          <quality>8.6250000000000000e+000</quality>
          <le>9.0169906616210938e-001</le></_>
